{"learner":{"attributes":{"best_iteration":"176","best_ntree_limit":"177","scikit_learn":"{\"use_label_encoder\": false, \"n_estimators\": 177, \"objective\": \"binary:logistic\", \"max_depth\": 5, \"max_leaves\": null, \"max_bin\": null, \"grow_policy\": null, \"learning_rate\": 0.18388384977349664, \"verbosity\": 0, \"booster\": null, \"tree_method\": null, \"gamma\": null, \"min_child_weight\": null, \"max_delta_step\": null, \"subsample\": 0.9422320465492187, \"sampling_method\": null, \"colsample_bytree\": 0.7559710176658108, \"colsample_bylevel\": null, \"colsample_bynode\": null, \"reg_alpha\": null, \"reg_lambda\": null, \"scale_pos_weight\": null, \"base_score\": null, \"missing\": NaN, \"num_parallel_tree\": null, \"random_state\": 42, \"n_jobs\": -1, \"monotone_constraints\": null, \"interaction_constraints\": null, \"importance_type\": null, \"gpu_id\": null, \"validate_parameters\": null, \"predictor\": null, \"enable_categorical\": false, \"feature_types\": null, \"max_cat_to_onehot\": null, \"max_cat_threshold\": null, \"eval_metric\": \"logloss\", \"early_stopping_rounds\": null, \"callbacks\": null, \"classes_\": [0, 1], \"n_classes_\": 2, \"_estimator_type\": \"classifier\"}"},"feature_names":["age","hypertension","heart_disease","bmi","HbA1c_level","blood_glucose_level","gender_encoded","smoking_history_encoded","age_group_encoded"],"feature_types":["float","float","float","float","float","float","float","float","float"],"gradient_booster":{"model":{"gbtree_model_param":{"num_parallel_tree":"1","num_trees":"177","size_leaf_vector":"0"},"tree_info":[0,0,0,0,0,0,0,0,0,0,0,0,0,0,0,0,0,0,0,0,0,0,0,0,0,0,0,0,0,0,0,0,0,0,0,0,0,0,0,0,0,0,0,0,0,0,0,0,0,0,0,0,0,0,0,0,0,0,0,0,0,0,0,0,0,0,0,0,0,0,0,0,0,0,0,0,0,0,0,0,0,0,0,0,0,0,0,0,0,0,0,0,0,0,0,0,0,0,0,0,0,0,0,0,0,0,0,0,0,0,0,0,0,0,0,0,0,0,0,0,0,0,0,0,0,0,0,0,0,0,0,0,0,0,0,0,0,0,0,0,0,0,0,0,0,0,0,0,0,0,0,0,0,0,0,0,0,0,0,0,0,0,0,0,0,0,0,0,0,0,0,0,0,0,0,0,0],"trees":[{"base_weights":[-1.5934755E-4,-6.343464E-1,1.9997593E0,-1.0647355E0,1.9994568E0,-1.8531668E0,-5.469988E-1,-1.9997197E0,-1.2685173E0,-1.9992526E0,-1.9123031E-1,-2.6692086E-1,-1.6815764E0,2.2362426E-1,-1.691885E0],"categories":[],"categories_nodes":[],"categories_segments":[],"categories_sizes":[],"default_left":[1,1,0,1,0,1,1,0,1,0,1,0,0,0,0],"id":0,"left_children":[1,3,-1,5,-1,7,9,-1,11,-1,13,-1,-1,-1,-1],"loss_changes":[4.3778375E4,2.9708777E4,0E0,9.194195E3,0E0,7.6247656E2,7.025631E3,0E0,7.410381E2,0E0,6.8011523E3,0E0,0E0,0E0,0E0],"parents":[2147483647,0,0,1,1,3,3,5,5,6,6,8,8,10,10],"right_children":[2,4,-1,6,-1,8,10,-1,12,-1,14,-1,-1,-1,-1],"split_conditions":[1.0017421E0,1.5221257E0,3.6772344E-1,1.6114819E-1,3.676678E-1,-1.657911E-1,-6.155572E-1,-3.6771616E-1,-6.9805837E-1,-3.6763024E-1,1.1408927E0,-4.9082436E-2,-3.0921474E-1,4.112089E-2,-3.1111032E-1],"split_indices":[4,5,0,4,0,4,5,0,8,0,8,0,0,0,0],"split_type":[0,0,0,0,0,0,0,0,0,0,0,0,0,0,0],"sum_hessian":[3.451475E4,2.62055E4,8.30925E3,2.252525E4,3.68025E3,8.9275E3,1.359775E4,7.13625E3,1.79125E3,2.67475E3,1.0923E4,5.235E2,1.26775E3,8.558E3,2.365E3],"tree_param":{"num_deleted":"0","num_feature":"9","num_nodes":"15","size_leaf_vector":"0"}},{"base_weights":[-3.0843628E-4,-4.3219528E-1,1.6920816E0,-1.2757715E0,2.2116786E-1,-1.5122478E0,-7.501255E-1,-1.70523E0,5.1806885E-1,-1.6745842E0,-1.420276E0,-1.5456122E0,-4.1892886E-1,2.018294E-3,9.191203E-1,-1.6951228E0,-1.5958198E0,1.8843817E0,-1.4535048E0,-1.6935828E0,-1.0535681E0,-1.1036375E0,9.254075E-3,-4.4973886E-1,3.3290666E-1,6.6653746E-1,1.139332E0],"categories":[],"categories_nodes":[],"categories_segments":[],"categories_sizes":[],"default_left":[1,1,0,1,1,1,1,0,1,1,1,1,1,1,1,0,0,0,0,0,0,0,0,0,0,0,0],"id":1,"left_children":[1,3,-1,5,7,9,11,-1,13,15,17,19,21,23,25,-1,-1,-1,-1,-1,-1,-1,-1,-1,-1,-1,-1],"loss_changes":[2.4621725E4,1.4791924E4,0E0,1.4549082E3,8.651352E3,1.1823047E2,9.5745557E2,0E0,2.7123613E3,2.0112305E0,5.69708E2,7.602051E1,7.531777E2,8.569911E2,4.094204E2,0E0,0E0,0E0,0E0,0E0,0E0,0E0,0E0,0E0,0E0,0E0,0E0],"parents":[2147483647,0,0,1,1,3,3,4,4,5,5,6,6,8,8,9,9,10,10,11,11,12,12,13,13,14,14],"right_children":[2,4,-1,6,8,10,12,-1,14,16,18,20,22,24,26,-1,-1,-1,-1,-1,-1,-1,-1,-1,-1,-1,-1],"split_conditions":[1.5218253E0,2.2718045E-1,3.1114647E-1,1.0838422E-3,-6.155572E-1,-2.9580885E-1,-2.9612434E-1,-3.1356424E-1,1.0681138E-3,-6.155572E-1,-1.9812757E-1,-6.155572E-1,-3.500231E-1,9.3775606E-1,8.9331746E-1,-3.117057E-1,-2.934455E-1,3.4650734E-1,-2.6727605E-1,-3.1142253E-1,-1.9373415E-1,-2.029411E-1,1.7016749E-3,-8.269971E-2,6.1216157E-2,1.2256547E-1,2.0950475E-1],"split_indices":[5,0,0,3,5,5,5,0,3,5,5,5,0,0,0,0,0,0,0,0,0,0,0,0,0,0,0],"split_type":[0,0,0,0,0,0,0,0,0,0,0,0,0,0,0,0,0,0,0,0,0,0,0,0,0,0,0],"sum_hessian":[3.368389E4,2.683621E4,6.84768E3,1.1712678E4,1.5123532E4,8.077096E3,3.6355818E3,2.0189744E3,1.3104559E4,2.9148987E3,5.1621978E3,1.0676274E3,2.5679543E3,5.731102E3,7.3734565E3,2.2957395E3,6.1915924E2,5.083526E1,5.1113623E3,8.1891614E2,2.4871136E2,9.874086E2,1.5805457E3,2.4228542E3,3.3082476E3,3.4361824E3,3.937274E3],"tree_param":{"num_deleted":"0","num_feature":"9","num_nodes":"27","size_leaf_vector":"0"}},{"base_weights":[7.064342E-4,-4.9501148E-1,1.5894219E0,-8.0266714E-1,1.5067592E0,1.6431891E0,1.5066942E0,-1.5913188E0,-4.5019543E-1,1.6002965E0,1.693342E0,-1.5057853E0,-1.6266984E0,-1.333045E0,-1.446433E-1,1.681429E0,1.841637E0,-1.7625719E0,-1.5886391E0,-1.5154797E0,-8.3207095E-1,1.4781547E-1,-1.2611114E0,1.7540567E0,1.6563847E0],"categories":[],"categories_nodes":[],"categories_segments":[],"categories_sizes":[],"default_left":[1,1,1,1,0,1,0,1,1,0,1,0,1,1,1,1,0,0,0,0,0,0,0,0,0],"id":2,"left_children":[1,3,5,7,-1,9,-1,11,13,-1,15,-1,17,19,21,23,-1,-1,-1,-1,-1,-1,-1,-1,-1],"loss_changes":[2.5464637E4,1.5178496E4,3.1728516E1,5.9373877E3,0E0,7.291992E0,0E0,1.7517578E1,3.9827493E3,0E0,6.5966797E-1,0E0,2.1271484E1,3.4568652E2,3.5820647E3,6.953125E-1,0E0,0E0,0E0,0E0,0E0,0E0,0E0,0E0,0E0],"parents":[2147483647,0,0,1,1,2,2,3,3,5,5,7,7,8,8,10,10,12,12,13,13,14,14,15,15],"right_children":[2,4,6,8,-1,10,-1,12,14,-1,16,-1,18,20,22,24,-1,-1,-1,-1,-1,-1,-1,-1,-1],"split_conditions":[1.0017421E0,1.5220548E0,1.5218253E0,-1.657911E-1,2.7706867E-1,-1.3179271E0,2.7705672E-1,-6.155572E-1,-2.9620034E-1,2.9426867E-1,8.4541285E-1,-2.768896E-1,-9.935961E-1,-6.155572E-1,1.1408927E0,-3.097118E-1,3.386473E-1,-3.241085E-1,-2.9212508E-1,-2.7867222E-1,-1.5300441E-1,2.7180877E-2,-2.3189801E-1,3.225427E-1,3.045824E-1],"split_indices":[4,5,5,4,0,8,0,5,5,0,8,0,8,5,8,8,0,0,0,0,0,0,0,0,0],"split_type":[0,0,0,0,0,0,0,0,0,0,0,0,0,0,0,0,0,0,0,0,0,0,0,0,0],"sum_hessian":[3.2331803E4,2.464321E4,7.6885933E3,2.1360826E4,3.2823843E3,4.648519E3,3.0400742E3,6.596875E3,1.4763951E4,2.5233599E3,2.1251592E3,1.943017E3,4.653858E3,3.7951218E3,1.0968829E4,1.9785557E3,1.4660344E2,1.00842395E3,3.6454338E3,2.7805369E3,1.0145849E3,8.692656E3,2.276173E3,4.896249E2,1.4889308E3],"tree_param":{"num_deleted":"0","num_feature":"9","num_nodes":"25","size_leaf_vector":"0"}},{"base_weights":[7.388488E-4,-3.190619E-1,1.3842204E0,-9.617556E-1,2.1810609E-1,-1.0830684E0,-6.7658074E-2,-1.390994E0,4.2925507E-1,-1.1197089E0,1.0914784E-1,-1.3792977E0,1.7720838E-1,2.5816781E-2,7.4727494E-1,-1.346276E0,-1.0057019E0,-1.1253548E0,3.9040977E-1,-7.429049E-1,4.792142E-1,-1.1066183E-1,6.7344654E-1,9.0109974E-1,4.3566927E-1],"categories":[],"categories_nodes":[],"categories_segments":[],"categories_sizes":[],"default_left":[1,1,0,1,1,1,1,0,1,1,1,0,1,1,1,0,0,0,0,0,0,0,0,0,0],"id":3,"left_children":[1,3,-1,5,7,9,11,-1,13,15,17,-1,19,21,23,-1,-1,-1,-1,-1,-1,-1,-1,-1,-1],"loss_changes":[1.3370242E4,8.4741875E3,0E0,1.2120615E3,4.543616E3,4.2997168E2,4.2940057E2,0E0,1.5166267E3,2.4524121E2,1.02629616E2,0E0,3.134923E2,4.6072726E2,3.164536E2,0E0,0E0,0E0,0E0,0E0,0E0,0E0,0E0,0E0,0E0],"parents":[2147483647,0,0,1,1,3,3,4,4,5,5,6,6,8,8,9,9,10,10,12,12,13,13,14,14],"right_children":[2,4,-1,6,8,10,12,-1,14,16,18,-1,20,22,24,-1,-1,-1,-1,-1,-1,-1,-1,-1,-1],"split_conditions":[1.5218253E0,3.1595558E-1,2.5453576E-1,1.2806125E0,-6.155572E-1,1.6156237E0,-6.155572E-1,-2.5578132E-1,1.0681138E-3,-2.9580885E-1,-2.9612434E-1,-2.5363058E-1,-3.94251E-1,1.6156237E0,4.89878E-1,-2.4755841E-1,-1.8493234E-1,-2.0693456E-1,7.179005E-2,-1.3660821E-1,8.8119745E-2,-2.0348921E-2,1.23835936E-1,1.6569768E-1,8.011254E-2],"split_indices":[5,0,0,3,5,1,5,0,3,5,5,0,0,1,5,0,0,0,0,0,0,0,0,0,0],"split_type":[0,0,0,0,0,0,0,0,0,0,0,0,0,0,0,0,0,0,0,0,0,0,0,0,0],"sum_hessian":[3.0217441E4,2.4544572E4,5.672868E3,1.1174306E4,1.3370267E4,9.839105E3,1.3352001E3,1.5503033E3,1.1819964E4,9.545794E3,2.9331107E2,2.0932219E2,1.1258778E3,5.210735E3,6.609229E3,3.1918308E3,6.353964E3,5.3869278E1,2.3944177E2,2.7786224E2,8.480156E2,4.304461E3,9.062738E2,4.4236113E3,2.1856172E3],"tree_param":{"num_deleted":"0","num_feature":"9","num_nodes":"25","size_leaf_vector":"0"}},{"base_weights":[1.1840101E-3,-4.1609555E-1,1.4000335E0,-6.4822686E-1,1.2975755E0,1.4591116E0,1.2975179E0,-1.2826825E0,-2.735793E-1,1.6267763E0,1.4257568E0,-1.4038758E0,-8.4788954E-1,-8.263145E-1,2.3626885E-1,1.686266E0,1.4861449E0,1.5042317E0,1.3789464E0,-1.3396317E0,-1.5021293E0,-1.1982987E0,-3.5101724E-1,2.1353633E0,-8.745048E-1,-1.2944236E0,4.0276995E-1],"categories":[],"categories_nodes":[],"categories_segments":[],"categories_sizes":[],"default_left":[1,1,1,1,0,1,0,1,1,1,1,1,1,1,1,0,0,0,0,0,0,0,0,0,0,0,0],"id":4,"left_children":[1,3,5,7,-1,9,-1,11,13,15,17,19,21,23,25,-1,-1,-1,-1,-1,-1,-1,-1,-1,-1,-1,-1],"loss_changes":[1.6592766E4,8.710602E3,3.7663086E1,4.583316E3,0E0,2.0807617E1,0E0,3.7605176E2,3.4172974E3,3.175415E0,1.0625977E1,3.3316406E1,2.7172205E2,8.322749E2,1.60825E3,0E0,0E0,0E0,0E0,0E0,0E0,0E0,0E0,0E0,0E0,0E0,0E0],"parents":[2147483647,0,0,1,1,2,2,3,3,5,5,7,7,8,8,9,9,10,10,11,11,12,12,13,13,14,14],"right_children":[2,4,6,8,-1,10,-1,12,14,16,18,20,22,24,26,-1,-1,-1,-1,-1,-1,-1,-1,-1,-1,-1,-1],"split_conditions":[1.0017421E0,1.5220548E0,1.5218253E0,1.6114819E-1,2.3860317E-1,2.2816652E-1,2.3859258E-1,-1.657911E-1,4.048142E-1,1.2794309E0,1.0681138E-3,3.38155E-1,5.381639E-1,2.5443274E-1,-6.155572E-1,3.1007707E-1,2.7327803E-1,2.766039E-1,2.5356597E-1,-2.4633662E-1,-2.762173E-1,-2.2034778E-1,-6.45464E-2,3.9265883E-1,-1.6080731E-1,-2.3802358E-1,7.406289E-2],"split_indices":[4,5,5,4,0,0,0,4,0,3,3,0,0,4,5,0,0,0,0,0,0,0,0,0,0,0,0],"split_type":[0,0,0,0,0,0,0,0,0,0,0,0,0,0,0,0,0,0,0,0,0,0,0,0,0,0,0],"sum_hessian":[2.8424326E4,2.1894004E4,6.530322E3,1.9282629E4,2.6113745E3,4.134466E3,2.395856E3,7.1581196E3,1.212451E4,6.780964E2,3.4563696E3,5.5960576E3,1.5620623E3,5.8172773E3,6.307232E3,4.6879648E2,2.0929987E2,1.279771E3,2.1765986E3,3.3924817E3,2.203576E3,9.152142E2,6.46848E2,9.244557E1,5.724832E3,6.1809875E2,5.6891333E3],"tree_param":{"num_deleted":"0","num_feature":"9","num_nodes":"27","size_leaf_vector":"0"}},{"base_weights":[2.7955791E-3,-2.4304064E-1,1.2345126E0,-8.102158E-1,1.4383192E-1,-1.0285143E0,-3.7587637E-1,-1.2413684E0,2.9682976E-1,-1.2462175E0,-9.5360553E-1,-1.2442688E0,-1.8343803E-1,-3.370202E-2,5.6616384E-1,-1.2162701E0,-8.547835E-1,9.029311E-2,-6.432605E-1,1.8483406E-1,-3.7724113E-1,3.933774E-1,8.1691986E-1],"categories":[],"categories_nodes":[],"categories_segments":[],"categories_sizes":[],"default_left":[1,1,0,1,1,1,1,0,1,0,1,0,1,1,1,0,0,0,0,0,0,0,0],"id":5,"left_children":[1,3,-1,5,7,9,11,-1,13,-1,15,-1,17,19,21,-1,-1,-1,-1,-1,-1,-1,-1],"loss_changes":[7.9266113E3,4.7884434E3,0E0,8.3865625E2,2.749985E3,9.484326E1,4.946761E2,0E0,1.0402003E3,0E0,1.1279321E2,0E0,3.0534488E2,3.9399982E2,2.7863013E2,0E0,0E0,0E0,0E0,0E0,0E0,0E0,0E0],"parents":[2147483647,0,0,1,1,3,3,4,4,5,5,6,6,8,8,10,10,12,12,13,13,14,14],"right_children":[2,4,-1,6,8,10,12,-1,14,-1,16,-1,18,20,22,-1,-1,-1,-1,-1,-1,-1,-1],"split_conditions":[1.5218253E0,2.2718045E-1,2.2700691E-1,1.0838422E-3,-6.155572E-1,-6.155572E-1,-6.155572E-1,-2.282676E-1,1.0681138E-3,-2.2915927E-1,-1.2822175E0,-2.2880092E-1,4.8987365E-1,1.0182975E-3,1.0466158E0,-2.2365242E-1,-1.5718088E-1,1.6603444E-2,-1.1828521E-1,3.3988E-2,-6.936855E-2,7.233575E-2,1.5021837E-1],"split_indices":[5,0,0,3,5,5,5,0,3,0,0,0,5,3,3,0,0,0,0,0,0,0,0],"split_type":[0,0,0,0,0,0,0,0,0,0,0,0,0,0,0,0,0,0,0,0,0,0,0],"sum_hessian":[2.6175664E4,2.1821209E4,4.3544536E3,8.848199E3,1.2973011E4,5.887686E3,2.960513E3,1.2896609E3,1.168335E4,1.503247E3,4.384439E3,5.360557E2,2.4244573E3,5.246106E3,6.4372437E3,1.1955128E3,3.1889263E3,1.5202562E3,9.0420105E2,3.2066907E3,2.0394154E3,3.812656E3,2.6245876E3],"tree_param":{"num_deleted":"0","num_feature":"9","num_nodes":"23","size_leaf_vector":"0"}},{"base_weights":[-1.1122454E-3,-3.631542E-1,1.2922482E0,-1.3016074E0,-6.5210946E-2,1.3452816E0,1.1864498E0,-1.1828847E0,-1.3403676E0,-2.602801E-1,1.1865104E0,1.42678E0,1.2930338E0,-1.2797611E0,-1.4493196E0,-6.160714E-1,1.6035987E-1,1.4466174E0,1.3421263E0,-1.2723178E0,-1.4088552E0,-7.038612E-1,3.2885224E-1,-1.199787E0,2.999871E-1],"categories":[],"categories_nodes":[],"categories_segments":[],"categories_sizes":[],"default_left":[1,1,1,1,1,1,0,0,1,1,0,1,0,1,0,1,1,0,0,0,0,0,0,0,0],"id":6,"left_children":[1,3,5,7,9,11,-1,-1,13,15,-1,17,-1,19,-1,21,23,-1,-1,-1,-1,-1,-1,-1,-1],"loss_changes":[1.1485813E4,5.358441E3,2.8504883E1,1.9666504E1,3.5523806E3,1.3338867E1,0E0,0E0,2.108496E1,1.8838416E3,0E0,3.815918E-1,0E0,3.605957E-1,0E0,5.659197E2,1.0958887E3,0E0,0E0,0E0,0E0,0E0,0E0,0E0,0E0],"parents":[2147483647,0,0,1,1,2,2,3,3,4,4,5,5,8,8,9,9,11,11,13,13,15,15,16,16],"right_children":[2,4,6,8,10,12,-1,-1,14,16,-1,18,-1,20,-1,22,24,-1,-1,-1,-1,-1,-1,-1,-1],"split_conditions":[1.0017421E0,-1.657911E-1,1.5218253E0,-6.155572E-1,1.5220548E0,1.0681138E-3,2.1816894E-1,-2.1751338E-1,4.8432164E-3,1.0692974E-3,2.181801E-1,1.6156237E0,2.3776804E-1,1.6156237E0,-2.6650646E-1,1.6156237E0,-6.155572E-1,2.6600957E-1,2.4679534E-1,-2.3395869E-1,-2.5906572E-1,-1.294287E-1,6.0470615E-2,-2.2062145E-1,5.5162784E-2],"split_indices":[4,4,5,5,5,3,0,0,3,3,0,1,0,1,0,1,5,0,0,0,0,0,0,0,0],"split_type":[0,0,0,0,0,0,0,0,0,0,0,0,0,0,0,0,0,0,0,0,0,0,0,0,0],"sum_hessian":[2.452719E4,1.9163574E4,5.363615E3,4.617172E3,1.4546403E4,3.5649216E3,1.7986936E3,1.1441497E3,3.473022E3,1.25858125E4,1.9605901E3,1.3823553E3,2.1825662E3,2.2398276E3,1.2331943E3,6.8182476E3,5.767565E3,1.1068844E3,2.7547098E2,2.1279878E3,1.11839836E2,6.2388696E3,5.7937805E2,5.362468E2,5.2313184E3],"tree_param":{"num_deleted":"0","num_feature":"9","num_nodes":"25","size_leaf_vector":"0"}},{"base_weights":[8.240208E-4,-3.202146E-1,1.2315146E0,-1.2383786E0,-5.5564534E-2,1.271101E0,1.1496836E0,-1.1785581E0,-1.3078392E0,-2.2068803E-1,1.1497505E0,1.3984125E0,1.242168E0,-1.1417676E0,-1.3509108E0,-8.709336E-1,2.2752844E-2,-1.1353525E0,-7.5451976E-1,-1.1726705E0,1.4218621E-1],"categories":[],"categories_nodes":[],"categories_segments":[],"categories_sizes":[],"default_left":[1,1,1,1,1,1,0,0,1,1,0,0,0,0,0,1,1,0,0,0,0],"id":7,"left_children":[1,3,5,7,9,11,-1,-1,13,15,-1,-1,-1,-1,-1,17,19,-1,-1,-1,-1],"loss_changes":[8.919068E3,4.3504263E3,1.3667969E1,1.5104004E1,2.7665095E3,9.822266E0,0E0,0E0,1.1650879E1,1.9352144E3,0E0,0E0,0E0,0E0,0E0,1.0165234E2,1.2702758E3,0E0,0E0,0E0,0E0],"parents":[2147483647,0,0,1,1,2,2,3,3,4,4,5,5,8,8,9,9,15,15,16,16],"right_children":[2,4,6,8,10,12,-1,-1,14,16,-1,-1,-1,-1,-1,18,20,-1,-1,-1,-1],"split_conditions":[1.0017421E0,-1.657911E-1,1.5218253E0,2.4933216E-1,1.5220548E0,2.280319E-1,2.1140824E-1,-2.167178E-1,-6.155572E-1,-1.718661E-1,2.1142054E-1,2.5714546E-1,2.2841462E-1,-2.0995262E-1,-2.4841067E-1,-2.9564977E-1,-6.155572E-1,-2.0877299E-1,-1.38744E-1,-2.1563517E-1,2.6145747E-2],"split_indices":[4,4,5,0,5,0,0,0,5,0,0,0,0,0,0,5,5,0,0,0,0],"split_type":[0,0,0,0,0,0,0,0,0,0,0,0,0,0,0,0,0,0,0,0,0],"sum_hessian":[2.2572256E4,1.7902848E4,4.669407E3,4.0048696E3,1.38979795E4,3.1372178E3,1.5321895E3,2.1614019E3,1.8434677E3,1.2224137E4,1.6738425E3,5.721787E2,2.565039E3,3.853155E2,1.4581522E3,3.329162E3,8.894975E3,1.0149903E3,2.3141716E3,8.0716284E2,8.0878115E3],"tree_param":{"num_deleted":"0","num_feature":"9","num_nodes":"21","size_leaf_vector":"0"}},{"base_weights":[4.9110735E-4,-1.7069095E-1,1.1213597E0,-9.151935E-1,4.686085E-3,-1.132408E0,-5.3850347E-1,1.6133406E0,-7.1409576E-2,-9.9892735E-1,-3.5508057E-1,1.5571883E0,2.8205156E0,6.713324E-2,-8.048678E-1,-1.0431701E0,1.9893745E-2,1.576806E0,-4.0549847E-1,1.7415193E0,1.4519584E0,1.2059739E0,3.1586406E0,-5.3464357E-2,6.116751E-1,-5.5511546E-1,-9.7173E-1],"categories":[],"categories_nodes":[],"categories_segments":[],"categories_sizes":[],"default_left":[1,1,0,1,1,0,1,1,1,1,1,1,1,1,1,0,0,0,0,0,0,0,0,0,0,0,0],"id":8,"left_children":[1,3,-1,5,7,-1,9,11,13,15,17,19,21,23,25,-1,-1,-1,-1,-1,-1,-1,-1,-1,-1,-1,-1],"loss_changes":[3.9749807E3,2.3465889E3,0E0,2.7974756E2,1.7807911E3,0E0,1.0563986E2,4.014807E1,1.4115474E3,1.6112885E1,8.821109E1,9.693481E0,1.14617E1,7.673624E2,9.1435425E1,0E0,0E0,0E0,0E0,0E0,0E0,0E0,0E0,0E0,0E0,0E0,0E0],"parents":[2147483647,0,0,1,1,3,3,4,4,6,6,7,7,8,8,9,9,10,10,11,11,12,12,13,13,14,14],"right_children":[2,4,-1,6,8,-1,10,12,14,16,18,20,22,24,26,-1,-1,-1,-1,-1,-1,-1,-1,-1,-1,-1,-1],"split_conditions":[1.5218253E0,-2.962035E-1,2.0619993E-1,-6.155572E-1,-1.9795491E-1,-2.0823154E-1,-1.1513343E0,7.756971E-1,1.1408927E0,2.3669004E0,-6.24329E-1,1.0811384E-3,-3.799464E-1,1.6156237E0,4.1462582E-1,-1.9182213E-1,3.6581382E-3,2.8994915E-1,-7.456462E-2,3.2023728E-1,2.669917E-1,2.2175911E-1,5.80823E-1,-9.831231E-3,1.1247717E-1,-1.0207677E-1,-1.7868544E-1],"split_indices":[5,5,0,5,5,0,7,8,8,2,7,3,7,1,5,0,0,0,0,0,0,0,0,0,0,0,0],"split_type":[0,0,0,0,0,0,0,0,0,0,0,0,0,0,0,0,0,0,0,0,0,0,0,0,0,0,0],"sum_hessian":[2.0714773E4,1.7971037E4,2.7437373E3,3.4254128E3,1.4545623E4,2.1713308E3,1.2540822E3,6.560744E2,1.3889549E4,3.560038E2,8.9807837E2,6.291014E2,2.697306E1,1.1683553E4,2.205996E3,3.4116467E2,1.4839134E1,2.2071697E1,8.760067E2,2.2297185E2,4.0612952E2,5.461435E0,2.1511627E1,9.565926E3,2.1176272E3,8.852769E2,1.3207191E3],"tree_param":{"num_deleted":"0","num_feature":"9","num_nodes":"27","size_leaf_vector":"0"}},{"base_weights":[3.7092967E-5,-2.803532E-1,1.1794537E0,-1.1850247E0,-4.7988422E-2,1.2131547E0,1.0980905E0,-1.095437E0,-1.2095053E0,-1.699395E-1,1.098172E0,1.261797E0,1.1796869E0,-1.2427773E0,-1.119833E0,-1.113821E0,-6.4927146E-2,1.2167784E0,1.3173974E0,-1.2006148E0,-1.2931925E0,-6.308226E-1,1.193704E-1],"categories":[],"categories_nodes":[],"categories_segments":[],"categories_sizes":[],"default_left":[1,1,1,1,1,1,0,0,1,1,0,1,0,1,0,0,1,0,0,0,0,0,0],"id":9,"left_children":[1,3,5,7,9,11,-1,-1,13,15,-1,17,-1,19,-1,-1,21,-1,-1,-1,-1,-1,-1],"loss_changes":[6.475127E3,3.3253984E3,8.97998E0,5.7646484E0,1.7596227E3,2.8251953E0,0E0,0E0,6.1552734E0,1.1276998E3,0E0,1.0644531E0,0E0,2.3493652E0,0E0,0E0,1.0680234E3,0E0,0E0,0E0,0E0,0E0,0E0],"parents":[2147483647,0,0,1,1,2,2,3,3,4,4,5,5,8,8,9,9,11,11,13,13,16,16],"right_children":[2,4,6,8,10,12,-1,-1,14,16,-1,18,-1,20,-1,-1,22,-1,-1,-1,-1,-1,-1],"split_conditions":[1.0017421E0,-1.657911E-1,1.5218253E0,-6.155572E-1,1.5220548E0,1.1040387E-3,2.019211E-1,-2.0143318E-1,7.147144E-1,-6.155572E-1,2.0193608E-1,-6.583502E-1,2.1692537E-1,2.5669623E-3,-2.0591919E-1,-2.0481369E-1,-1.1534303E0,2.237459E-1,2.4224809E-1,-2.2077367E-1,-2.3779722E-1,-1.1599808E-1,2.1950288E-2],"split_indices":[4,4,5,5,5,3,0,0,8,5,0,8,0,3,0,0,7,0,0,0,0,0,0],"split_type":[0,0,0,0,0,0,0,0,0,0,0,0,0,0,0,0,0,0,0,0,0,0,0],"sum_hessian":[1.9578242E4,1.5818396E4,3.7598467E3,3.23181E3,1.2586586E4,2.6487947E3,1.1110521E3,7.0340796E2,2.528402E3,1.1376936E4,1.2096504E3,1.0646785E3,1.5841162E3,1.8347694E3,6.936327E2,1.1380656E3,1.023887E4,6.0097034E2,4.6370813E2,1.01267535E3,8.2209406E2,2.5147559E3,7.7241143E3],"tree_param":{"num_deleted":"0","num_feature":"9","num_nodes":"23","size_leaf_vector":"0"}},{"base_weights":[2.7289446E-3,-2.4375114E-1,1.1449124E0,-9.5645714E-1,1.768124E-2,1.2156008E0,1.1292294E0,-1.1489319E0,-5.2997184E-1,1.5797725E0,-6.648725E-2,-1.1058097E0,-1.1940768E0,-8.3403784E-1,-1.2979464E-2,3.574002E0,1.5451784E0,-4.19823E-1,2.375772E-1,-1.1627338E0,-1.2324426E0,-1.1259903E0,-6.7359006E-1,-1.5356771E0,6.57256E-2,1.7400551E0,1.4397066E0,-5.648852E-1,4.932998E-1,-7.6348424E-1,3.4616196E-1],"categories":[],"categories_nodes":[],"categories_segments":[],"categories_sizes":[],"default_left":[1,1,1,1,1,0,0,1,1,1,1,0,1,1,1,0,1,1,1,0,0,0,0,0,0,0,0,0,0,0,0],"id":10,"left_children":[1,3,5,7,9,-1,-1,11,13,15,17,-1,19,21,23,-1,25,27,29,-1,-1,-1,-1,-1,-1,-1,-1,-1,-1,-1,-1],"loss_changes":[5.114688E3,2.7842808E3,2.2016602E0,3.285901E2,1.4376625E3,0E0,0E0,4.057373E0,1.9632077E2,3.3045654E1,1.1148324E3,0E0,1.7480469E-1,3.6078674E1,5.5653126E1,0E0,8.825684E0,6.3600385E2,6.065182E2,0E0,0E0,0E0,0E0,0E0,0E0,0E0,0E0,0E0,0E0,0E0,0E0],"parents":[2147483647,0,0,1,1,2,2,3,3,4,4,7,7,8,8,9,9,10,10,12,12,13,13,14,14,16,16,17,17,18,18],"right_children":[2,4,6,8,10,-1,-1,12,14,16,18,-1,20,22,24,-1,26,28,30,-1,-1,-1,-1,-1,-1,-1,-1,-1,-1,-1,-1],"split_conditions":[1.0017421E0,1.6113444E-1,2.2739486E-1,-1.657911E-1,2.5450158E-1,2.2352935E-1,2.0764706E-1,2.4933216E-1,8.4938234E-1,-5.67157E-1,4.9362966E-1,-2.0334055E-1,3.3257138E-3,-3.4695438E-1,-7.907381E-1,6.5720123E-1,1.1004973E-3,1.5445204E0,2.5451967E-1,-2.1380796E-1,-2.2662629E-1,-2.0705143E-1,-1.2386233E-1,-2.823862E-1,1.2085876E-2,3.1996801E-1,2.6473877E-1,-1.0387326E-1,9.0709865E-2,-1.4039242E-1,6.3653596E-2],"split_indices":[4,4,0,4,4,0,0,0,0,0,0,0,3,0,3,0,3,3,4,0,0,0,0,0,0,0,0,0,0,0,0],"split_type":[0,0,0,0,0,0,0,0,0,0,0,0,0,0,0,0,0,0,0,0,0,0,0,0,0,0,0,0,0,0,0],"sum_hessian":[1.8165771E4,1.4942095E4,3.223677E3,4.0093403E3,1.0932754E4,5.714479E2,2.6522292E3,2.76141E3,1.2479305E3,5.580516E2,1.0374702E4,1.4253862E3,1.3360237E3,7.8539307E2,4.625375E2,7.7709346E0,5.5028064E2,4.79839E3,5.5763125E3,7.5254114E2,5.8348254E2,2.7641238E2,5.0898065E2,2.182279E1,4.4071472E2,1.8779681E2,3.6248383E2,4.1409277E3,6.574623E2,5.450814E2,5.031231E3],"tree_param":{"num_deleted":"0","num_feature":"9","num_nodes":"31","size_leaf_vector":"0"}},{"base_weights":[2.2325434E-3,-1.2284905E-1,1.0722106E0,-1.0789113E0,-2.4857273E-2,-5.7648605E-1,1.2339796E-1,-9.95926E-1,-4.5968425E-1,3.024505E-1,-1.8732466E-1,-1.0536991E0,-8.441242E-1,-2.4602646E-1,-7.812426E-1,1.940117E-1,1.5394298E0,-1.8267807E0,5.405289E-2],"categories":[],"categories_nodes":[],"categories_segments":[],"categories_sizes":[],"default_left":[1,1,0,0,1,1,1,1,1,1,1,0,0,0,0,0,0,0,0],"id":11,"left_children":[1,3,-1,-1,5,7,9,11,13,15,17,-1,-1,-1,-1,-1,-1,-1,-1],"loss_changes":[2.2664304E3,1.4204548E3,0E0,0E0,1.1248636E3,1.4228192E2,6.03203E2,4.66864E0,1.5650717E2,9.2230835E2,1.5687175E3,0E0,0E0,0E0,0E0,0E0,0E0,0E0,0E0],"parents":[2147483647,0,0,1,1,4,4,5,5,6,6,7,7,8,8,9,9,10,10],"right_children":[2,4,-1,-1,6,8,10,12,14,16,18,-1,-1,-1,-1,-1,-1,-1,-1],"split_conditions":[1.5220548E0,-6.155572E-1,1.971622E-1,-1.9839436E-1,-1.7237876E-1,-1.2822175E0,4.89878E-1,-1.4599433E0,4.8983946E-1,4.1618627E-1,4.8988527E-1,-1.9375825E-1,-1.552208E-1,-4.524029E-2,-1.436579E-1,3.567562E-2,2.8307626E-1,-3.3591545E-1,9.939454E-3],"split_indices":[5,5,0,0,0,0,5,0,5,5,5,0,0,0,0,0,0,0,0],"split_type":[0,0,0,0,0,0,0,0,0,0,0,0,0,0,0,0,0,0,0],"sum_hessian":[1.6932584E4,1.5161118E4,1.7714661E3,1.4085465E3,1.3752572E4,2.912572E3,1.084E4,6.32764E2,2.279808E3,6.8771177E3,3.9628823E3,4.5402774E2,1.7873625E2,1.3707712E3,9.090368E2,6.323895E3,5.532224E2,5.0773517E2,3.455147E3],"tree_param":{"num_deleted":"0","num_feature":"9","num_nodes":"19","size_leaf_vector":"0"}},{"base_weights":[-8.9957553E-4,-2.1149816E-1,1.1154743E0,-1.119321E0,-3.439002E-2,1.1368256E0,1.052297E0,-1.0797509E0,-1.1573008E0,-1.21461384E-1,1.0632204E0,1.2109525E0,1.1170964E0,-1.0447966E0,-1.1751163E0,-2.6076667E-2,-9.5590234E-1,-1.1259958E-1,1.8142179E0,-6.9073343E-1,-1.0873123E0],"categories":[],"categories_nodes":[],"categories_segments":[],"categories_sizes":[],"default_left":[1,1,1,1,1,1,0,0,1,1,0,0,0,0,0,1,1,0,0,0,0],"id":12,"left_children":[1,3,5,7,9,11,-1,-1,13,15,-1,-1,-1,-1,-1,17,19,-1,-1,-1,-1],"loss_changes":[3.78285E3,2.1763738E3,2.248291E0,2.0715332E0,1.0827184E3,1.4204102E0,0E0,0E0,1.0042725E0,8.353823E2,0E0,0E0,0E0,0E0,0E0,1.5001785E3,3.676703E1,0E0,0E0,0E0,0E0],"parents":[2147483647,0,0,1,1,2,2,3,3,4,4,5,5,8,8,9,9,15,15,16,16],"right_children":[2,4,6,8,10,12,-1,-1,14,16,-1,-1,-1,-1,-1,18,20,-1,-1,-1,-1],"split_conditions":[1.0017421E0,-1.657911E-1,1.5224509E0,2.4933216E-1,1.5220548E0,2.280319E-1,1.9350041E-1,-1.9854875E-1,-6.155572E-1,1.0016959E0,1.9550905E-1,2.2267461E-1,2.05416E-1,-1.9212121E-1,-2.160849E-1,9.083147E-1,4.677086E-2,-2.0705244E-2,3.3360538E-1,-1.2701473E-1,-1.9993918E-1],"split_indices":[4,4,5,0,5,0,0,0,5,4,0,0,0,0,0,4,5,0,0,0,0],"split_type":[0,0,0,0,0,0,0,0,0,0,0,0,0,0,0,0,0,0,0,0,0],"sum_hessian":[1.608792E4,1.3535352E4,2.5525684E3,2.2086924E3,1.1326659E4,1.8951106E3,6.574578E2,1.0961129E3,1.1125793E3,1.0495E4,8.316592E2,3.8567133E2,1.5094392E3,1.6024988E2,9.523295E2,9.4193125E3,1.0756877E3,8.997238E3,4.2207355E2,3.5851202E2,7.171757E2],"tree_param":{"num_deleted":"0","num_feature":"9","num_nodes":"21","size_leaf_vector":"0"}},{"base_weights":[-2.9271256E-4,-5.604564E-1,1.3648671E-1,-8.333243E-1,-3.860634E-1,6.0511958E-2,7.2785705E-1,-1.0320786E0,-7.261576E-1,2.345369E0,-4.4796637E-1,-3.2731408E-1,1.6082363E-1,8.4138113E-1,-8.938628E-2,1.699257E0,-7.353423E-1,2.6115239E0,1.7538531E0,-5.2476037E-1,1.4131615E-1,-4.693243E-1,-1.02574795E-1,1.3958964E0,1.2338301E-1,8.6485946E-1,1.2222922E-1,-2.9997904E-2,-1.2684654E0,-7.4348074E-1,1.4233337E-1,2.245144E0,3.5978458E0,-5.6077844E-1,5.136633E-1,2.6256387E0,-6.5628815E-1,2.359016E0,-4.8833907E-1,1.2820908E-1,-8.4187376E-1,1.5662334E0,1.3260939E0,-4.3677535E-2,3.6210507E-1,7.49417E-1,1.0449786E0,-4.697389E-1,2.83754E-1,-2.8957185E-1,2.5684443E-1],"categories":[],"categories_nodes":[],"categories_segments":[],"categories_sizes":[],"default_left":[1,1,1,1,1,1,1,0,1,1,1,1,1,1,1,0,1,1,0,1,1,1,1,1,1,1,1,1,0,0,0,0,0,0,0,0,0,0,0,0,0,0,0,0,0,0,0,0,0,0,0],"id":13,"left_children":[1,3,5,7,9,11,13,-1,15,17,19,21,23,25,27,-1,29,31,-1,33,35,37,39,41,43,45,47,49,-1,-1,-1,-1,-1,-1,-1,-1,-1,-1,-1,-1,-1,-1,-1,-1,-1,-1,-1,-1,-1,-1,-1],"loss_changes":[1.1596627E3,1.410299E2,5.465218E2,2.3901855E1,3.077826E2,4.1947833E2,1.285575E2,0E0,1.8074982E1,1.7741699E0,8.038626E1,7.067128E1,3.9595142E2,2.0426575E1,1.1852808E1,0E0,5.4854126E0,1.2427216E0,0E0,5.902124E1,4.087264E2,7.416226E1,1.4671776E2,9.187012E-1,3.3164227E2,2.3699707E1,3.9206905E0,1.21880045E1,0E0,0E0,0E0,0E0,0E0,0E0,0E0,0E0,0E0,0E0,0E0,0E0,0E0,0E0,0E0,0E0,0E0,0E0,0E0,0E0,0E0,0E0,0E0],"parents":[2147483647,0,0,1,1,2,2,3,3,4,4,5,5,6,6,8,8,9,9,10,10,11,11,12,12,13,13,14,14,16,16,17,17,19,19,20,20,21,21,22,22,23,23,24,24,25,25,26,26,27,27],"right_children":[2,4,6,8,10,12,14,-1,16,18,20,22,24,26,28,-1,30,32,-1,34,36,38,40,42,44,46,48,50,-1,-1,-1,-1,-1,-1,-1,-1,-1,-1,-1,-1,-1,-1,-1,-1,-1,-1,-1,-1,-1,-1,-1],"split_conditions":[-2.1686241E-1,-1.1529106E0,2.3669004E0,-1.4599433E0,-6.2434757E-1,-1.1532286E0,1.6926515E0,-1.8978259E-1,-1.4165733E0,-5.697485E-1,9.641998E-1,1.026722E0,-6.2429583E-1,1.4925046E0,1.4880154E0,3.124659E-1,1.6156237E0,-6.254844E-1,3.2250524E-1,1.6156237E0,1.4916308E0,-1.7290565E-1,1.6926986E0,3.092904E-1,9.3775606E-1,4.3413776E-1,8.542689E-1,4.3503764E-1,-2.3325029E-1,-1.367141E-1,2.6172807E-2,4.128457E-1,6.6158575E-1,-1.031181E-1,9.445438E-2,4.8281255E-1,-1.2068079E-1,4.3378493E-1,-8.979767E-2,2.357558E-2,-1.5480699E-1,2.8800502E-1,2.4384725E-1,-8.031593E-3,6.658527E-2,1.3780569E-1,1.9215469E-1,-8.63774E-2,5.2177776E-2,-5.3247586E-2,4.7229543E-2],"split_indices":[0,7,2,0,7,7,0,0,0,0,7,0,7,7,7,0,1,0,0,1,7,0,0,0,0,7,0,7,0,0,0,0,0,0,0,0,0,0,0,0,0,0,0,0,0,0,0,0,0,0,0],"split_type":[0,0,0,0,0,0,0,0,0,0,0,0,0,0,0,0,0,0,0,0,0,0,0,0,0,0,0,0,0,0,0,0,0,0,0,0,0,0,0,0,0,0,0,0,0,0,0,0,0,0,0],"sum_hessian":[1.5133473E4,2.9694304E3,1.2164042E4,1.1563472E3,1.8130833E3,1.0780188E4,1.3838541E3,4.020548E2,7.5429236E2,3.9362164E1,1.7737211E3,2.2148496E3,8.565339E3,1.215042E3,1.688122E2,2.1514413E0,7.521409E2,2.4791967E1,1.4570195E1,1.5693202E3,2.0440091E2,1.3565641E3,8.582856E2,2.5094675E2,8.314392E3,1.1764321E3,3.8609894E1,1.616934E2,7.1188016E0,7.4538214E2,6.758776E0,2.046595E1,4.3260174E0,1.517157E3,5.2163128E1,4.91184E1,1.552825E2,8.237397E0,1.3483267E3,6.5472833E2,2.0355724E2,6.671241E1,1.8423433E2,4.8918403E3,3.4225513E3,7.2007825E2,4.5635385E2,7.86768E0,3.0742216E1,8.487628E1,7.6817116E1],"tree_param":{"num_deleted":"0","num_feature":"9","num_nodes":"51","size_leaf_vector":"0"}},{"base_weights":[-1.358084E-3,-1.8262647E-1,1.0933217E0,-1.0972072E0,-3.0686172E-2,1.1103845E0,1.0408324E0,-1.0605775E0,-1.1288712E0,-7.6024497E-1,8.381868E-2,1.2128979E0,1.0985111E0,-1.0351642E0,-1.1433405E0,-1.0652475E0,-4.732848E-1,1.5846915E0,1.9093553E-2,-5.9123665E-1,7.312451E-2,2.5351455E0,1.512569E0,-6.3989274E-2,1.0497321E0],"categories":[],"categories_nodes":[],"categories_segments":[],"categories_sizes":[],"default_left":[1,1,1,1,1,1,0,0,1,1,1,0,0,0,0,0,1,1,1,0,0,0,0,0,0],"id":14,"left_children":[1,3,5,7,9,11,-1,-1,13,15,17,-1,-1,-1,-1,-1,19,21,23,-1,-1,-1,-1,-1,-1],"loss_changes":[2.9179624E3,1.7531174E3,7.1533203E-1,8.8720703E-1,9.0392645E2,5.6848145E-1,0E0,0E0,1.0253906E-1,1.2797168E2,9.085474E2,0E0,0E0,0E0,0E0,0E0,4.8903976E1,2.267041E1,7.679157E2,0E0,0E0,0E0,0E0,0E0,0E0],"parents":[2147483647,0,0,1,1,2,2,3,3,4,4,5,5,8,8,9,9,10,10,16,16,17,17,18,18],"right_children":[2,4,6,8,10,12,-1,-1,14,16,18,-1,-1,-1,-1,-1,20,22,24,-1,-1,-1,-1,-1,-1],"split_conditions":[1.0017421E0,-1.657911E-1,1.5218253E0,2.4933216E-1,-2.9620034E-1,-2.1686241E-1,1.9139226E-1,-1.9502307E-1,-6.155572E-1,-6.155572E-1,-1.9795491E-1,2.2303233E-1,2.0199844E-1,-1.9034998E-1,-2.1024184E-1,-1.9588181E-1,1.122991E0,-2.8966045E-1,1.5220548E0,-1.0871887E-1,1.3446417E-2,4.661723E-1,2.78137E-1,-1.1766594E-2,1.9302878E-1],"split_indices":[4,4,5,0,5,0,0,0,5,5,5,0,0,0,0,0,3,0,5,0,0,0,0,0,0],"split_type":[0,0,0,0,0,0,0,0,0,0,0,0,0,0,0,0,0,0,0,0,0,0,0,0,0],"sum_hessian":[1.4703181E4,1.2615078E4,2.0881018E3,1.7963018E3,1.0818776E4,1.5606311E3,5.274708E2,8.4883984E2,9.47462E2,1.4668998E3,9.351877E3,1.5149295E2,1.4091381E3,1.3643266E2,8.110293E2,7.097804E2,7.571193E2,3.8565552E2,8.966222E3,6.226316E2,1.3448776E2,2.4791737E1,3.6086377E2,8.298216E3,6.680058E2],"tree_param":{"num_deleted":"0","num_feature":"9","num_nodes":"25","size_leaf_vector":"0"}},{"base_weights":[6.869244E-3,-1.4948328E-1,1.0762339E0,-1.0796238E0,-1.5356885E-2,-2.748064E-1,2.3725425E-1,-4.928529E-1,7.2398365E-2,3.746314E-1,-2.796102E-1,-5.358386E-1,1.9670019E-1,2.4814588E-1,-4.7933066E-1,2.4623433E-1,1.5314435E0,-1.0028235E0,1.3983674E-1],"categories":[],"categories_nodes":[],"categories_segments":[],"categories_sizes":[],"default_left":[1,1,0,0,1,1,1,1,1,1,1,0,0,0,0,0,0,0,0],"id":15,"left_children":[1,3,-1,-1,5,7,9,11,13,15,17,-1,-1,-1,-1,-1,-1,-1,-1],"loss_changes":[2.31463E3,1.5067659E3,0E0,0E0,6.9194855E2,3.943405E2,3.7993866E2,9.493634E1,1.9501733E2,6.2739636E2,3.410534E2,0E0,0E0,0E0,0E0,0E0,0E0,0E0,0E0],"parents":[2147483647,0,0,1,1,4,4,5,5,6,6,7,7,8,8,9,9,10,10],"right_children":[2,4,-1,-1,6,8,10,12,14,16,18,-1,-1,-1,-1,-1,-1,-1,-1],"split_conditions":[1.0017421E0,-1.657911E-1,1.9790202E-1,-1.9852538E-1,1.0692974E-3,8.937131E-1,9.0822506E-1,1.6156237E0,1.6925447E0,6.281297E-1,9.083147E-1,-9.8532066E-2,3.6169987E-2,4.563002E-2,-8.8141166E-2,4.5278516E-2,2.8160772E-1,-1.8440303E-1,2.5713718E-2],"split_indices":[4,4,0,0,3,0,4,1,0,4,4,0,0,0,0,0,0,0,0],"split_type":[0,0,0,0,0,0,0,0,0,0,0,0,0,0,0,0,0,0,0],"sum_hessian":[1.3841695E4,1.2076799E4,1.7648965E3,1.5211145E3,1.0555684E4,5.207315E3,5.348369E3,3.198328E3,2.0089869E3,4.22554E3,1.1228293E3,3.0108584E3,1.874696E2,1.5240629E3,4.8492407E2,3.8044846E3,4.2105518E2,4.1165686E2,7.111724E2],"tree_param":{"num_deleted":"0","num_feature":"9","num_nodes":"19","size_leaf_vector":"0"}},{"base_weights":[-4.0031274E-4,-7.7857055E-2,1.0352362E0,-1.0445744E0,-9.795637E-3,1.9570476E-1,-2.2635406E-1,9.483706E-3,1.6745309E0,-9.3748385E-1,-1.0069048E-1,1.7017101E-1,-7.304041E-1,1.5608939E0,4.574076E0,-9.954873E-1,-1.1049674E-1,1.5511997E0,-2.8002083E-1],"categories":[],"categories_nodes":[],"categories_segments":[],"categories_sizes":[],"default_left":[1,1,0,0,1,1,1,1,1,1,1,0,0,0,0,0,0,0,0],"id":16,"left_children":[1,3,-1,-1,5,7,9,11,13,15,17,-1,-1,-1,-1,-1,-1,-1,-1],"loss_changes":[1.0491685E3,8.0066187E2,0E0,0E0,5.0602335E2,1.6066765E3,4.9464804E2,6.1630646E2,2.078584E2,3.9765137E1,1.3945214E3,0E0,0E0,0E0,0E0,0E0,0E0,0E0,0E0],"parents":[2147483647,0,0,1,1,4,4,5,5,6,6,7,7,8,8,9,9,10,10],"right_children":[2,4,-1,-1,6,8,10,12,14,16,18,-1,-1,-1,-1,-1,-1,-1,-1],"split_conditions":[1.5218253E0,-6.155572E-1,1.9036323E-1,-1.9208035E-1,4.161591E-1,1.7054394E-1,4.1618627E-1,1.7052718E-1,1.1388104E0,1.9859915E0,4.89878E-1,3.12917E-2,-1.3430952E-1,2.870232E-1,8.410987E-1,-1.8305403E-1,-2.0318566E-2,2.8524056E-1,-5.149131E-2],"split_indices":[5,5,0,0,5,5,5,5,8,3,5,0,0,0,0,0,0,0,0],"split_type":[0,0,0,0,0,0,0,0,0,0,0,0,0,0,0,0,0,0,0],"sum_hessian":[1.3077118E4,1.2167981E4,9.09136E2,7.993918E2,1.136859E4,5.833274E3,5.535316E3,5.181767E3,6.5150714E2,8.302836E2,4.705032E3,4.25783E3,9.2393677E2,6.28417E2,2.3090149E1,7.7567535E2,5.4608276E1,4.600119E2,4.2450205E3],"tree_param":{"num_deleted":"0","num_feature":"9","num_nodes":"19","size_leaf_vector":"0"}},{"base_weights":[3.1802128E-3,-1.2737717E-1,1.0618541E0,-1.0632694E0,-1.5121805E-2,-6.574774E-1,7.318694E-2,-1.0417835E0,-4.0391272E-1,1.438329E0,1.8337574E-2,-2.7131516E-1,-7.964805E-1,1.7211577E0,1.3362178E0,-7.975118E-1,9.898154E-2],"categories":[],"categories_nodes":[],"categories_segments":[],"categories_sizes":[],"default_left":[1,1,0,0,1,1,1,0,1,1,1,0,0,0,0,0,0],"id":17,"left_children":[1,3,-1,-1,5,7,9,-1,11,13,15,-1,-1,-1,-1,-1,-1],"loss_changes":[1.7406838E3,1.1778228E3,0E0,0E0,5.679582E2,1.1749939E2,6.5907434E2,0E0,3.781935E1,7.519165E0,5.569162E2,0E0,0E0,0E0,0E0,0E0,0E0],"parents":[2147483647,0,0,1,1,4,4,5,5,6,6,8,8,9,9,10,10],"right_children":[2,4,-1,-1,6,8,10,-1,12,14,16,-1,-1,-1,-1,-1,-1],"split_conditions":[1.0017421E0,-1.657911E-1,1.9525781E-1,-1.9551806E-1,-2.9620034E-1,-6.155572E-1,-1.9795491E-1,-1.9156715E-1,9.07882E-1,3.413116E-1,-1.9791864E-1,-4.9890473E-2,-1.4645989E-1,3.164931E-1,2.4570887E-1,-1.4664954E-1,1.8201105E-2],"split_indices":[4,4,0,0,5,5,5,0,4,0,5,0,0,0,0,0,0],"split_type":[0,0,0,0,0,0,0,0,0,0,0,0,0,0,0,0,0],"sum_hessian":[1.2591805E4,1.1210222E4,1.381583E3,1.1996942E3,1.0010527E4,1.2091023E3,8.801425E3,4.7940344E2,7.2969885E2,3.389944E2,8.462431E3,5.467233E2,1.8297554E2,8.5717476E1,2.532769E2,7.604374E2,7.701993E3],"tree_param":{"num_deleted":"0","num_feature":"9","num_nodes":"17","size_leaf_vector":"0"}},{"base_weights":[3.4154812E-3,-1.08497225E-1,1.0509977E0,-1.0520552E0,-1.2141E-2,6.32849E-2,-7.270893E-1,-5.9381854E-3,1.5257217E0,-7.656035E-1,9.84902E-1,1.06550366E-1,-9.1184735E-1,2.873689E0,1.4238195E0,-6.1528933E-1,-1.0044891E0],"categories":[],"categories_nodes":[],"categories_segments":[],"categories_sizes":[],"default_left":[1,1,0,0,1,1,1,1,1,1,0,0,0,0,0,0,0],"id":18,"left_children":[1,3,-1,-1,5,7,9,11,13,15,-1,-1,-1,-1,-1,-1,-1],"loss_changes":[1.4152422E3,9.91577E2,0E0,0E0,5.337424E2,9.06396E2,6.303366E1,8.7134955E2,5.149121E1,3.257257E1,0E0,0E0,0E0,0E0,0E0,0E0,0E0],"parents":[2147483647,0,0,1,1,4,4,5,5,6,6,7,7,8,8,9,9],"right_children":[2,4,-1,-1,6,8,10,12,14,16,-1,-1,-1,-1,-1,-1,-1],"split_conditions":[1.0017421E0,-1.657911E-1,1.932615E-1,-1.9345596E-1,1.0016984E0,9.083147E-1,1.5297273E0,9.082483E-1,-2.6165083E-1,4.8983946E-1,1.8110757E-1,1.959289E-2,-1.67674E-1,5.28425E-1,2.6181743E-1,-1.1314177E-1,-1.8470931E-1],"split_indices":[4,4,0,0,4,4,5,4,0,5,0,0,0,0,0,0,0],"split_type":[0,0,0,0,0,0,0,0,0,0,0,0,0,0,0,0,0],"sum_hessian":[1.2069583E4,1.0905455E4,1.1641282E3,1.00955707E3,9.895898E3,8.952351E3,9.435472E2,8.548702E3,4.0364893E2,9.233281E2,2.0219042E1,7.605228E3,9.43474E2,2.645815E1,3.771908E2,5.6892126E2,3.544069E2],"tree_param":{"num_deleted":"0","num_feature":"9","num_nodes":"17","size_leaf_vector":"0"}},{"base_weights":[8.3176064E-4,-5.9491295E-2,1.025634E0,-1.0288645E0,-1.0514648E-2,-1.2344555E-1,3.5378322E-1,-3.0074084E-1,1.9556122E-1,-9.147594E-1,3.9118004E-1,-8.978694E-2,-5.1076263E-1,3.5221845E-1,-3.1966135E-1,1.2526559E0,-9.647896E-1,2.69885E-1,6.614995E-1],"categories":[],"categories_nodes":[],"categories_segments":[],"categories_sizes":[],"default_left":[1,1,0,0,1,1,1,1,1,1,1,0,0,0,0,0,0,0,0],"id":19,"left_children":[1,3,-1,-1,5,7,9,11,13,15,17,-1,-1,-1,-1,-1,-1,-1,-1],"loss_changes":[7.163036E2,5.195238E2,0E0,0E0,4.286316E2,4.498782E2,1.1731909E2,2.2646039E2,2.2947919E2,8.896797E0,7.8368835E1,0E0,0E0,0E0,0E0,0E0,0E0,0E0,0E0],"parents":[2147483647,0,0,1,1,4,4,5,5,6,6,7,7,8,8,9,9,10,10],"right_children":[2,4,-1,-1,6,8,10,12,14,16,18,-1,-1,-1,-1,-1,-1,-1,-1],"split_conditions":[1.5218253E0,-6.155572E-1,1.8859753E-1,-1.8919156E-1,9.1010994E-1,1.0265486E0,-7.052361E-1,4.1601261E-1,1.6926515E0,1.1297005E0,2.1346753E0,-1.6510367E-2,-9.3921E-2,6.4767286E-2,-5.878056E-2,2.3034318E-1,-1.7740923E-1,4.9627494E-2,1.2163907E-1],"split_indices":[5,5,0,0,3,0,0,5,0,8,3,0,0,0,0,0,0,0,0],"split_type":[0,0,0,0,0,0,0,0,0,0,0,0,0,0,0,0,0,0,0],"sum_hessian":[1.1585086E4,1.094195E4,6.431354E2,5.252813E2,1.0416669E4,7.9521846E3,2.4644846E3,5.1114414E3,2.840743E3,6.990104E1,2.3945835E3,2.550774E3,2.5606672E3,2.1786306E3,6.621124E2,1.0347674E0,6.886627E1,1.6542869E3,7.4029663E2],"tree_param":{"num_deleted":"0","num_feature":"9","num_nodes":"19","size_leaf_vector":"0"}},{"base_weights":[-2.9370906E-3,-9.749054E-2,1.0431982E0,-1.0436081E0,-1.662515E-2,-5.7781264E-2,1.0241668E0,-1.1969273E-1,5.896013E-1,-5.7739805E-2,-6.894892E-1,7.0261514E-1,-9.969622E-2],"categories":[],"categories_nodes":[],"categories_segments":[],"categories_sizes":[],"default_left":[1,1,0,0,1,1,0,1,1,0,0,0,0],"id":20,"left_children":[1,3,-1,-1,5,7,-1,9,11,-1,-1,-1,-1],"loss_changes":[1.1109086E3,7.8800836E2,0E0,0E0,4.0655798E2,3.659985E2,0E0,2.941469E2,6.2162506E1,0E0,0E0,0E0,0E0],"parents":[2147483647,0,0,1,1,4,4,5,5,7,7,8,8],"right_children":[2,4,-1,-1,6,8,-1,10,12,-1,-1,-1,-1],"split_conditions":[1.0017421E0,-1.657911E-1,1.918273E-1,-1.9190267E-1,1.5221257E0,2.3669004E0,1.8832773E-1,1.0016814E0,1.6926515E0,-1.0617417E-2,-1.2678592E-1,1.2919958E-1,-1.8332524E-2],"split_indices":[4,4,0,0,5,2,0,4,0,0,0,0,0],"split_type":[0,0,0,0,0,0,0,0,0,0,0,0,0],"sum_hessian":[1.1228833E4,1.029889E4,9.299437E2,8.1000476E2,9.488885E3,9.128847E3,3.6003818E2,8.33277E3,7.960769E2,7.5166045E3,8.1616534E2,6.839246E2,1.12152275E2],"tree_param":{"num_deleted":"0","num_feature":"9","num_nodes":"13","size_leaf_vector":"0"}},{"base_weights":[3.5162773E-3,-7.675484E-2,1.0355996E0,-6.695512E-1,4.0055703E-2,-1.0356994E0,-4.1183835E-1,1.4421577E0,-3.0411864E-2,-7.2341955E-1,-1.661016E-1,2.6798959E0,1.4089298E0,-8.564174E-1,8.205248E-2,-1.0066161E0,-5.642886E-1,1.9182775E0,-1.8713586E-1,-1.0172658E0,-6.439517E-1,1.7217314E0,-9.653597E-2],"categories":[],"categories_nodes":[],"categories_segments":[],"categories_sizes":[],"default_left":[1,1,0,1,1,0,1,1,1,1,1,0,0,1,1,0,0,0,0,0,0,0,0],"id":21,"left_children":[1,3,-1,5,7,-1,9,11,13,15,17,-1,-1,19,21,-1,-1,-1,-1,-1,-1,-1,-1],"loss_changes":[8.970202E2,6.956741E2,0E0,1.5562695E2,8.293348E2,0E0,7.432442E1,1.274408E1,7.425641E2,1.8738312E1,2.4248064E1,0E0,0E0,3.2081726E1,2.060446E3,0E0,0E0,0E0,0E0,0E0,0E0,0E0,0E0],"parents":[2147483647,0,0,1,1,3,3,4,4,6,6,7,7,8,8,9,9,10,10,13,13,14,14],"right_children":[2,4,-1,6,8,-1,10,12,14,16,18,-1,-1,20,22,-1,-1,-1,-1,-1,-1,-1,-1],"split_conditions":[1.0017421E0,1.6113444E-1,1.9043003E-1,-1.657911E-1,2.5450158E-1,-1.9044839E-1,5.39879E-1,-5.67157E-1,2.5451967E-1,-3.4695438E-1,5.822574E-1,4.9278957E-1,2.5907943E-1,-4.9112386E-1,4.4127887E-1,-1.8510044E-1,-1.0376356E-1,3.5274026E-1,-3.4411263E-2,-1.8705875E-1,-1.18412316E-1,3.165986E-1,-1.7751407E-2],"split_indices":[4,4,0,4,4,0,0,0,4,0,0,0,0,6,4,0,0,0,0,0,0,0,0],"split_type":[0,0,0,0,0,0,0,0,0,0,0,0,0,0,0,0,0,0,0,0,0,0,0],"sum_hessian":[1.082554E4,1.0045193E4,7.803475E2,1.6527908E3,8.392402E3,6.8150977E2,9.7128107E2,4.006741E2,7.991728E3,4.2740735E2,5.438737E2,8.392725E0,3.9228137E2,9.5691986E2,7.034808E3,1.518473E2,2.7556006E2,4.532473E0,5.3934125E2,5.424597E2,4.144601E2,6.9010333E2,6.344705E3],"tree_param":{"num_deleted":"0","num_feature":"9","num_nodes":"23","size_leaf_vector":"0"}},{"base_weights":[4.313164E-3,-3.741704E-2,1.0158532E0,-1.021756E0,1.9463316E-3,-3.437353E-1,1.0218448E-1,-2.4287805E-1,-7.7518314E-1,1.5605079E0,6.2767684E-2,-3.2216665E-1,1.9555155E0,-8.270439E-1,-2.0934658E-1,1.4644756E0,2.70887E0,1.11866534E-1,-5.697801E-1],"categories":[],"categories_nodes":[],"categories_segments":[],"categories_sizes":[],"default_left":[1,1,0,0,1,1,1,1,1,1,1,0,0,0,0,0,0,0,0],"id":22,"left_children":[1,3,-1,-1,5,7,9,11,13,15,17,-1,-1,-1,-1,-1,-1,-1,-1],"loss_changes":[4.3941977E2,3.8737607E2,0E0,0E0,3.331692E2,9.386359E1,4.283611E2,3.0624652E2,1.1830856E1,1.7661163E1,2.2549724E2,0E0,0E0,0E0,0E0,0E0,0E0,0E0,0E0],"parents":[2147483647,0,0,1,1,4,4,5,5,6,6,7,7,8,8,9,9,10,10],"right_children":[2,4,-1,-1,6,8,10,12,14,16,18,-1,-1,-1,-1,-1,-1,-1,-1],"split_conditions":[1.5218253E0,-6.155572E-1,1.8679899E-1,-1.8788444E-1,-1.1534303E0,5.3898907E-1,-6.24329E-1,5.1449E-1,1.6156237E0,1.0763414E0,1.4924681E0,-5.9241243E-2,3.595877E-1,-1.5208001E-1,-3.8495455E-2,2.692934E-1,4.9811742E-1,2.0570448E-2,-1.0477336E-1],"split_indices":[5,5,0,0,7,5,7,5,1,8,7,0,0,0,0,0,0,0,0],"split_type":[0,0,0,0,0,0,0,0,0,0,0,0,0,0,0,0,0,0,0],"sum_hessian":[1.0407986E4,9.99655E3,4.1143597E2,3.8342737E2,9.613123E3,2.1603845E3,7.4527383E3,1.7523175E3,4.08067E2,1.9512195E2,7.2576167E3,1.6921411E3,6.0176346E1,3.7338354E2,3.4683426E1,1.8216371E2,1.2958231E1,6.735616E3,5.2200055E2],"tree_param":{"num_deleted":"0","num_feature":"9","num_nodes":"19","size_leaf_vector":"0"}},{"base_weights":[3.8109112E-3,-6.302025E-2,1.029194E0,-1.0291727E0,-4.205843E-3,-1.019501E0,2.5920311E-2,-2.3283514E-3,1.0141767E0,1.7866476E-1,-1.9295712E-1],"categories":[],"categories_nodes":[],"categories_segments":[],"categories_sizes":[],"default_left":[1,1,0,0,1,0,1,1,0,0,0],"id":23,"left_children":[1,3,-1,-1,5,-1,7,9,-1,-1,-1],"loss_changes":[6.9898987E2,5.441422E2,0E0,0E0,2.7615195E2,0E0,2.447888E2,2.941929E2,0E0,0E0,0E0],"parents":[2147483647,0,0,1,1,4,4,6,6,7,7],"right_children":[2,4,-1,-1,6,-1,8,10,-1,-1,-1],"split_conditions":[1.0017421E0,-1.657911E-1,1.8925215E-1,-1.8924822E-1,-6.155572E-1,-1.8746977E-1,1.5220548E0,4.161591E-1,1.8649071E-1,3.2853562E-2,-3.54817E-2],"split_indices":[4,4,0,0,5,0,5,5,0,0,0],"split_type":[0,0,0,0,0,0,0,0,0,0,0],"sum_hessian":[1.0198184E4,9.575051E3,6.2313245E2,5.4848663E2,9.026564E3,2.5917426E2,8.76739E3,8.524714E3,2.4267572E2,4.3729062E3,4.1518076E3],"tree_param":{"num_deleted":"0","num_feature":"9","num_nodes":"11","size_leaf_vector":"0"}},{"base_weights":[2.0291647E-3,-5.4574423E-2,1.0237013E0,-1.0236007E0,-4.608564E-3,-7.434843E-2,3.714179E-1,-2.2156302E-2,-5.718986E-1,4.0432906E-1,-6.0380155E-1,-8.5472204E-2,1.500265E0,-7.1322995E-1,-3.9225554E-1,3.6175796E-1,1.4226283E0,-1.1321583E0,1.1584673E-2],"categories":[],"categories_nodes":[],"categories_segments":[],"categories_sizes":[],"default_left":[1,1,0,0,1,1,1,1,1,1,1,0,0,0,0,0,0,0,0],"id":24,"left_children":[1,3,-1,-1,5,7,9,11,13,15,17,-1,-1,-1,-1,-1,-1,-1,-1],"loss_changes":[5.7358E2,4.550155E2,0E0,0E0,2.3441536E2,1.9579799E2,4.5129654E1,6.5806793E2,1.7894836E1,5.8157104E1,1.49879055E1,0E0,0E0,0E0,0E0,0E0,0E0,0E0,0E0],"parents":[2147483647,0,0,1,1,4,4,5,5,6,6,7,7,8,8,9,9,10,10],"right_children":[2,4,-1,-1,6,8,10,12,14,16,18,-1,-1,-1,-1,-1,-1,-1,-1],"split_conditions":[1.0017421E0,-1.657911E-1,1.8824214E-1,-1.8822363E-1,1.6156237E0,1.0016984E0,1.4916588E0,9.083147E-1,1.7309347E-1,9.639971E-1,1.7309347E-1,-1.5716957E-2,2.758745E-1,-1.3115147E-1,-7.212946E-2,6.652144E-2,2.6159835E-1,-2.0818561E-1,2.1302341E-3],"split_indices":[4,4,0,0,1,4,7,4,6,7,6,0,0,0,0,0,0,0,0],"split_type":[0,0,0,0,0,0,0,0,0,0,0,0,0,0,0,0,0,0,0],"sum_hessian":[9.916364E3,9.396706E3,5.196581E2,4.598081E2,8.936897E3,7.5394023E3,1.3974952E3,6.8245625E3,7.1483997E2,1.3524393E3,4.505595E1,6.552975E3,2.7158746E2,3.9841937E2,3.164206E2,1.2994689E3,5.2970455E1,2.3790344E1,2.1265608E1],"tree_param":{"num_deleted":"0","num_feature":"9","num_nodes":"19","size_leaf_vector":"0"}},{"base_weights":[2.5051722E-4,-4.8063125E-2,1.0190002E0,-5.587695E-1,3.523061E-2,-1.0187622E0,-3.6396095E-1,1.35478E0,-2.545544E-2,-9.697923E-1,-2.659055E-1,1.5025465E0,1.2548282E0,-7.401324E-1,7.052931E-2,-1.0558627E0,-4.3767622E-1,-4.9514806E-1,9.51249E-3,1.9104744E0,1.4164741E0,-8.695415E-1,-3.2553026E-1,1.5812801E0,-7.90072E-2],"categories":[],"categories_nodes":[],"categories_segments":[],"categories_sizes":[],"default_left":[1,1,0,1,1,0,1,1,1,1,1,1,0,1,1,0,0,0,0,0,0,0,0,0,0],"id":25,"left_children":[1,3,-1,5,7,-1,9,11,13,15,17,19,-1,21,23,-1,-1,-1,-1,-1,-1,-1,-1,-1,-1],"loss_changes":[4.7436584E2,3.9143457E2,0E0,1.1525604E2,6.3361914E2,0E0,5.3681915E1,3.2528076E0,5.190086E2,5.3137207E0,4.9434326E1,2.0446167E0,0E0,4.7780945E1,1.5070393E3,0E0,0E0,0E0,0E0,0E0,0E0,0E0,0E0,0E0,0E0],"parents":[2147483647,0,0,1,1,3,3,4,4,6,6,7,7,8,8,9,9,10,10,11,11,13,13,14,14],"right_children":[2,4,-1,6,8,-1,10,12,14,16,18,20,-1,22,24,-1,-1,-1,-1,-1,-1,-1,-1,-1,-1],"split_conditions":[1.0017421E0,1.6113444E-1,1.8737768E-1,-1.657911E-1,2.5450158E-1,-1.8733391E-1,-4.950481E-1,1.1452673E-3,2.5451967E-1,1.577418E0,8.4938234E-1,2.2771439E-1,2.3074263E-1,5.1451534E-1,4.4127887E-1,-1.9415608E-1,-8.048159E-2,-9.104973E-2,1.7491932E-3,3.513054E-1,2.604667E-1,-1.5989465E-1,-5.9859756E-2,2.9077187E-1,-1.4528148E-2],"split_indices":[4,4,0,4,4,0,3,3,4,0,0,0,0,5,4,0,0,0,0,0,0,0,0,0,0],"split_type":[0,0,0,0,0,0,0,0,0,0,0,0,0,0,0,0,0,0,0,0,0,0,0,0,0],"sum_hessian":[9.635766E3,9.2003955E3,4.3537085E2,1.289326E3,7.9110693E3,3.8232632E2,9.069997E2,3.4689548E2,7.564174E3,1.25111786E2,7.8188794E2,1.343067E2,2.1258879E2,8.94826E2,6.6693477E3,1.0684519E2,1.8266594E1,4.262791E2,3.556088E2,1.9707891E1,1.14598816E2,6.8112897E2,2.1369702E2,5.998234E2,6.0695244E3],"tree_param":{"num_deleted":"0","num_feature":"9","num_nodes":"25","size_leaf_vector":"0"}},{"base_weights":[4.861546E-3,-3.617471E-2,1.0149558E0,-1.0145727E0,-8.943198E-7,-4.8223713E-1,5.446798E-2,-1.0136832E0,-3.204759E-1,1.3252025E0,1.0438314E-2,-3.8456774E-1,4.5232365E-1,1.2877983E0,1.6929039E0,-6.429296E-1,7.8702025E-2],"categories":[],"categories_nodes":[],"categories_segments":[],"categories_sizes":[],"default_left":[1,1,0,0,1,1,1,0,1,1,1,0,0,0,0,0,0],"id":26,"left_children":[1,3,-1,-1,5,7,9,-1,11,13,15,-1,-1,-1,-1,-1,-1],"loss_changes":[3.8670844E2,3.1730334E2,0E0,0E0,2.2714662E2,7.5122574E1,4.3471893E2,0E0,3.357186E1,1.398529E0,3.3504312E2,0E0,0E0,0E0,0E0,0E0,0E0],"parents":[2147483647,0,0,1,1,4,4,5,5,6,6,8,8,9,9,10,10],"right_children":[2,4,-1,-1,6,8,10,-1,12,14,16,-1,-1,-1,-1,-1,-1],"split_conditions":[1.0017421E0,-1.657911E-1,1.8663397E-1,-1.8656354E-1,-2.9620034E-1,-6.155572E-1,-1.9795491E-1,-1.8639997E-1,2.3669004E0,1.066916E0,-1.9789071E-1,-7.071579E-2,8.317501E-2,2.368053E-1,3.1129768E-1,-1.1822437E-1,1.4472031E-2],"split_indices":[4,4,0,0,5,5,5,0,2,8,5,0,0,0,0,0,0],"split_type":[0,0,0,0,0,0,0,0,0,0,0,0,0,0,0,0,0],"sum_hessian":[9.3275205E3,8.9643E3,3.6322095E2,3.186512E2,8.645648E3,8.766285E2,7.7690205E3,2.0333397E2,6.732945E2,2.591995E2,7.509821E3,6.221953E2,5.109917E1,2.3935371E2,1.9845781E1,7.096052E2,6.800216E3],"tree_param":{"num_deleted":"0","num_feature":"9","num_nodes":"17","size_leaf_vector":"0"}},{"base_weights":[3.8240214E-3,-3.0873694E-2,1.0114247E0,-4.194927E-1,4.9613263E-2,-7.0847267E-1,-2.1975754E-1,-1.0111552E0,7.965452E-2,-5.282899E-1,-1.1231468E0,1.8516558E0,-3.5250506E-1,1.7148688E-1,-2.4615738E-1,-7.606887E-1,1.6788433E0,-9.891705E-1,-1.3242556E0,2.7795749E0,1.5922621E0,-9.5934767E-1,-1.813166E-1,5.5891216E-2,1.5871767E0,-6.997695E-1,8.8173E-2],"categories":[],"categories_nodes":[],"categories_segments":[],"categories_sizes":[],"default_left":[1,1,0,1,1,1,1,0,1,1,1,1,1,1,1,0,0,0,0,0,0,0,0,0,0,0,0],"id":27,"left_children":[1,3,-1,5,7,9,11,-1,13,15,17,19,21,23,25,-1,-1,-1,-1,-1,-1,-1,-1,-1,-1,-1,-1],"loss_changes":[3.1943173E2,2.7629477E2,0E0,8.732205E1,2.3328416E2,4.5653137E1,2.4747388E2,0E0,2.1299702E2,2.2356296E2,3.717636E0,8.624603E0,8.7545425E1,9.0865393E2,2.3746588E2,0E0,0E0,0E0,0E0,0E0,0E0,0E0,0E0,0E0,0E0,0E0,0E0],"parents":[2147483647,0,0,1,1,3,3,4,4,5,5,6,6,8,8,9,9,10,10,11,11,12,12,13,13,14,14],"right_children":[2,4,-1,6,8,10,12,-1,14,16,18,20,22,24,26,-1,-1,-1,-1,-1,-1,-1,-1,-1,-1,-1,-1],"split_conditions":[1.0017421E0,-3.5704422E-1,1.8598466E-1,4.4138917E-1,-1.657911E-1,4.4096804E-1,5.345726E-1,-1.8593511E-1,9.082483E-1,2.5517547E-1,6.6781205E-1,3.9535365E-1,5.34776E-1,6.281297E-1,9.083147E-1,-1.3987836E-1,3.0871215E-1,-1.8189247E-1,-2.435092E-1,5.111189E-1,2.9279128E-1,-1.7640854E-1,-3.3341195E-2,1.0277492E-2,2.9185614E-1,-1.2867631E-1,1.621359E-2],"split_indices":[4,3,0,4,4,4,4,0,4,4,0,0,4,4,4,0,0,0,0,0,0,0,0,0,0,0,0],"split_type":[0,0,0,0,0,0,0,0,0,0,0,0,0,0,0,0,0,0,0,0,0,0,0,0,0,0,0],"sum_hessian":[9.134794E3,8.831638E3,3.031567E2,1.5145674E3,7.31707E3,6.1795435E2,8.9661304E2,2.0061504E2,7.116455E3,4.3236057E2,1.8559381E2,5.321946E1,8.4339355E2,5.5520454E3,1.5644093E3,3.917652E2,4.0595345E1,1.14940475E2,7.065334E1,9.504331E0,4.371513E1,1.8455702E2,6.5883655E2,5.1338867E3,4.1815906E2,6.6332776E2,9.0108154E2],"tree_param":{"num_deleted":"0","num_feature":"9","num_nodes":"27","size_leaf_vector":"0"}},{"base_weights":[4.8008864E-3,-2.1238018E-2,1.0084382E0,-3.0109993E-1,5.8762543E-2,-9.0319E-1,-2.5070593E-1,1.480426E0,2.6478225E-2,-9.4268364E-1,-4.5581993E-1,-1.6245167E-1,-6.56718E-1,1.9800323E0,1.3371534E0,-9.358541E-2,2.2577515E-1,-9.759585E-1,-5.5529696E-1,-8.9275324E-1,-2.1929502E-2,-2.3312475E-1,1.7736319E0,-6.9675326E-1,-2.9685138E-2,7.093111E-1,2.0182946E0,4.2174473E-2,-3.2503125E-1,1.4300835E0,1.9326253E-1],"categories":[],"categories_nodes":[],"categories_segments":[],"categories_sizes":[],"default_left":[1,1,0,1,1,1,1,1,1,1,1,1,1,1,0,1,1,0,0,0,0,0,0,0,0,0,0,0,0,0,0],"id":28,"left_children":[1,3,-1,5,7,9,11,13,15,17,19,21,23,25,-1,27,29,-1,-1,-1,-1,-1,-1,-1,-1,-1,-1,-1,-1,-1,-1],"loss_changes":[2.332382E2,1.9478772E2,0E0,5.8457397E1,3.10513E2,2.2027893E0,6.389351E1,8.105316E0,1.5835475E2,1.210762E0,2.6388075E0,2.013486E2,7.977051E0,9.503937E-2,0E0,1.2978409E2,9.714003E1,0E0,0E0,0E0,0E0,0E0,0E0,0E0,0E0,0E0,0E0,0E0,0E0,0E0,0E0],"parents":[2147483647,0,0,1,1,3,3,4,4,5,5,6,6,7,7,8,8,9,9,10,10,11,11,12,12,13,13,15,15,16,16],"right_children":[2,4,-1,6,8,10,12,14,16,18,20,22,24,26,-1,28,30,-1,-1,-1,-1,-1,-1,-1,-1,-1,-1,-1,-1,-1,-1],"split_conditions":[1.5218253E0,-1.1534303E0,1.854355E-1,-1.4134932E0,-6.24329E-1,7.3837805E-1,5.3898907E-1,-9.419031E-3,9.3775606E-1,-1.4599433E0,1.7309347E-1,5.1449E-1,2.3669004E0,-1.9950348E-1,2.4588092E-1,4.8987365E-1,9.821037E-1,-1.7946301E-1,-1.0211014E-1,-1.641629E-1,-4.0324815E-3,-4.2867877E-2,3.2614225E-1,-1.2812167E-1,-5.458617E-3,1.3043086E-1,3.7113178E-1,7.7552046E-3,-5.9767995E-2,2.6296926E-1,3.5537858E-2],"split_indices":[5,7,0,0,7,5,5,0,0,0,6,5,2,5,0,5,0,0,0,0,0,0,0,0,0,0,0,0,0,0,0],"split_type":[0,0,0,0,0,0,0,0,0,0,0,0,0,0,0,0,0,0,0,0,0,0,0,0,0,0,0,0,0,0,0],"sum_hessian":[8.923015E3,8.69832E3,2.2469504E2,1.9330979E3,6.765222E3,1.47994E2,1.7851039E3,1.4922299E2,6.615999E3,1.3497159E2,1.3022409E1,1.4675128E3,3.1759103E2,3.0398869E1,1.1882412E2,4.1290444E3,2.4869546E3,1.22896E2,1.2075586E1,5.9615235E0,7.0608854E0,1.4166792E3,5.083361E1,2.9842575E2,1.9165289E1,1.4596835E0,2.8939184E1,2.603008E3,1.5260365E3,6.424522E1,2.4227092E3],"tree_param":{"num_deleted":"0","num_feature":"9","num_nodes":"31","size_leaf_vector":"0"}},{"base_weights":[7.0701557E-4,-8.128773E-2,2.891526E-1,-1.0275104E-1,1.0035574E0,2.1040374E-1,5.907673E-1,-6.625597E-1,-6.282633E-2,-2.062857E-1,3.012068E-1,5.057263E-1,9.7862244E-1,-5.350186E-1,-7.926801E-1,-1.0067078E0,-4.1165486E-2,1.8063668E-2,-5.5228174E-1,1.4677871E0,1.9794737E-1,-1.0530793E-1,5.525231E-1,1.048022E0,-2.9914483E-1,-6.905307E-1,2.8209543E0,-9.7271496E-1,-5.495443E-1,7.255787E-2,-2.2549088E-1,-3.2327196E-1,1.1434673E0,-7.0302874E-1,1.9619694E-1,-7.9467565E-1,2.9636738E-1,9.433997E-2,-1.0666108E0,7.465352E-1,4.519098E-1,2.5875524E-1,1.1094007E0,8.4158933E-1,-1.1177366E0],"categories":[],"categories_nodes":[],"categories_segments":[],"categories_sizes":[],"default_left":[1,1,1,1,0,1,1,1,1,1,1,1,1,1,1,0,1,1,1,0,1,1,1,1,1,0,0,0,0,0,0,0,0,0,0,0,0,0,0,0,0,0,0,0,0],"id":29,"left_children":[1,3,5,7,-1,9,11,13,15,17,19,21,23,25,27,-1,29,31,33,-1,35,37,39,41,43,-1,-1,-1,-1,-1,-1,-1,-1,-1,-1,-1,-1,-1,-1,-1,-1,-1,-1,-1,-1],"loss_changes":[2.0738953E2,1.5908499E2,4.5975754E1,1.4962149E2,0E0,5.8354164E1,1.274086E1,6.972122E0,1.2777431E2,2.1453545E1,1.5213684E2,9.528381E0,6.6178436E0,1.210144E2,9.031097E0,0E0,1.2814508E2,6.511766E1,1.2402237E1,0E0,1.1391544E2,4.783547E0,5.6707535E0,2.9903488E0,5.087053E0,0E0,0E0,0E0,0E0,0E0,0E0,0E0,0E0,0E0,0E0,0E0,0E0,0E0,0E0,0E0,0E0,0E0,0E0,0E0,0E0],"parents":[2147483647,0,0,1,1,2,2,3,3,5,5,6,6,7,7,8,8,9,9,10,10,11,11,12,12,13,13,14,14,16,16,17,17,18,18,20,20,21,21,22,22,23,23,24,24],"right_children":[2,4,6,8,-1,10,12,14,16,18,20,22,24,26,28,-1,30,32,34,-1,36,38,40,42,44,-1,-1,-1,-1,-1,-1,-1,-1,-1,-1,-1,-1,-1,-1,-1,-1,-1,-1,-1,-1],"split_conditions":[9.8598063E-1,1.5218253E0,1.6156237E0,-9.518249E-1,1.84538E-1,-1.9791864E-1,2.992288E0,4.1588667E-1,-6.155572E-1,-1.9808698E-1,4.7675528E-2,-1.1488689E0,4.939802E0,1.7492321E-1,5.1457345E-1,-1.851173E-1,4.89878E-1,-2.959463E-1,2.8452883E0,2.6990235E-1,4.797989E-2,2.2044635E0,4.7674455E-2,-6.1221135E-1,3.4151778E-1,-1.2697744E-1,5.1872796E-1,-1.7886657E-1,-1.01052314E-1,1.3342219E-2,-4.146413E-2,-5.944449E-2,2.1026516E-1,-1.2927563E-1,3.6077447E-2,-1.4612801E-1,5.4497175E-2,1.7347597E-2,-1.961325E-1,1.3727576E-1,8.309891E-2,4.758091E-2,2.0400088E-1,1.5475468E-1,-2.055337E-1],"split_indices":[3,5,1,3,0,5,3,5,5,5,5,7,3,5,5,0,5,5,3,0,5,3,5,7,5,0,0,0,0,0,0,0,0,0,0,0,0,0,0,0,0,0,0,0,0],"split_type":[0,0,0,0,0,0,0,0,0,0,0,0,0,0,0,0,0,0,0,0,0,0,0,0,0,0,0,0,0,0,0,0,0,0,0,0,0,0,0,0,0,0,0,0,0],"sum_hessian":[8.766741E3,6.8268345E3,1.9399062E3,6.695276E3,1.3155862E2,1.5396224E3,4.0028378E2,4.4467148E2,6.2506045E3,2.7524927E2,1.2643732E3,3.3019025E2,7.0093544E1,2.271428E2,2.1752867E2,1.3920502E2,6.1113994E3,1.6755301E2,1.0769627E2,1.0174033E2,1.1626329E3,2.3400126E1,3.0679013E2,6.66532E1,3.440348E0,2.1784247E2,9.300343E0,1.23258606E2,9.427006E1,3.7799116E3,2.331488E3,1.291074E2,3.8445606E1,8.969251E1,1.800376E1,1.04239784E2,1.0583931E3,2.0122791E1,3.2773337E0,1.0257512E2,2.04215E2,5.185729E0,6.1467464E1,1.4256142E0,2.0147338E0],"tree_param":{"num_deleted":"0","num_feature":"9","num_nodes":"45","size_leaf_vector":"0"}},{"base_weights":[4.417358E-3,-1.005388E0,2.3664257E-2,4.4072E-3,1.0030689E0,1.3500386E-1,-1.323216E-1,-1.8139018E-2,1.555882E0,-7.93682E-1,-1.663957E-2,1.293781E-1,-6.551474E-1,3.0014086E0,1.4569037E0,-8.5494083E-1,-4.1571534E-1,1.5092524E0,-1.653189E-1],"categories":[],"categories_nodes":[],"categories_segments":[],"categories_sizes":[],"default_left":[1,0,1,1,0,1,1,1,1,1,1,0,0,0,0,0,0,0,0],"id":30,"left_children":[1,-1,3,5,-1,7,9,11,13,15,17,-1,-1,-1,-1,-1,-1,-1,-1],"loss_changes":[1.676229E2,0E0,1.5961134E2,1.4823965E2,0E0,9.239685E2,3.102783E2,3.603614E2,5.473639E1,1.36241455E1,7.836109E2,0E0,0E0,0E0,0E0,0E0,0E0,0E0,0E0],"parents":[2147483647,0,0,2,2,3,3,5,5,6,6,7,7,8,8,9,9,10,10],"right_children":[2,-1,4,6,-1,8,10,12,14,16,18,-1,-1,-1,-1,-1,-1,-1,-1],"split_conditions":[-6.155572E-1,-1.8487461E-1,1.5218253E0,4.161591E-1,1.8444817E-1,1.7054394E-1,4.1618627E-1,1.7052718E-1,-5.628511E-1,1.4722247E0,4.898739E-1,2.3790542E-2,-1.20471016E-1,5.519106E-1,2.6790106E-1,-1.5720981E-1,-7.644334E-2,2.7752715E-1,-3.0399477E-2],"split_indices":[5,0,5,5,0,5,5,5,0,0,5,0,0,0,0,0,0,0,0],"split_type":[0,0,0,0,0,0,0,0,0,0,0,0,0,0,0,0,0,0,0],"sum_hessian":[8.622296E3,1.6030898E2,8.461986E3,8.299801E3,1.6218619E2,4.2451006E3,4.0547E3,3.8329688E3,4.1213187E2,6.027701E2,3.45193E3,3.1128892E3,7.200797E2,2.4531914E1,3.8759995E2,5.1761566E2,8.51544E1,3.056723E2,3.1462576E3],"tree_param":{"num_deleted":"0","num_feature":"9","num_nodes":"19","size_leaf_vector":"0"}},{"base_weights":[5.511012E-3,-2.256024E-2,1.0092584E0,-1.0074687E0,2.728487E-3,1.15143985E-1,-1.821119E-1,-4.6452567E-2,1.7379481E0,-9.2994773E-1,9.7102314E-2,1.2834942E-1,-8.479117E-1,2.07104E0,1.5178049E0,-9.6958834E-1,-3.3661655E-1,1.6250205E0,-2.4847366E-1],"categories":[],"categories_nodes":[],"categories_segments":[],"categories_sizes":[],"default_left":[1,1,0,0,1,1,1,1,1,1,1,0,0,0,0,0,0,0,0],"id":31,"left_children":[1,3,-1,-1,5,7,9,11,13,15,17,-1,-1,-1,-1,-1,-1,-1,-1],"loss_changes":[2.3774577E2,2.0444969E2,0E0,0E0,1.663334E2,1.3054088E3,6.3220624E2,6.344405E2,2.9912964E1,1.9032715E1,1.16477E3,0E0,0E0,0E0,0E0,0E0,0E0,0E0,0E0],"parents":[2147483647,0,0,1,1,4,4,5,5,6,6,7,7,8,8,9,9,10,10],"right_children":[2,4,-1,-1,6,8,10,12,14,16,18,-1,-1,-1,-1,-1,-1,-1,-1],"split_conditions":[1.0017421E0,-1.657911E-1,1.8558632E-1,-1.8525723E-1,6.281048E-1,5.3473556E-1,6.281297E-1,5.346872E-1,1.1202181E-3,2.0739307E0,9.082483E-1,2.3601385E-2,-1.5591727E-1,3.808308E-1,2.790998E-1,-1.7829163E-1,-6.1898343E-2,2.98815E-1,-4.569029E-2],"split_indices":[4,4,0,0,4,4,4,4,3,3,4,0,0,0,0,0,0,0,0],"split_type":[0,0,0,0,0,0,0,0,0,0,0,0,0,0,0,0,0,0,0],"sum_hessian":[8.43594E3,8.207387E3,2.2855396E2,2.04487E2,8.0028994E3,4.976617E3,3.0262822E3,4.526815E3,4.498025E2,8.2209265E2,2.2041897E3,3.7169668E3,8.0984796E2,1.7563974E2,2.7416275E2,7.700138E2,5.207889E1,4.058916E2,1.7982981E3],"tree_param":{"num_deleted":"0","num_feature":"9","num_nodes":"19","size_leaf_vector":"0"}},{"base_weights":[4.0831333E-3,-4.690061E-1,3.838476E-2,-8.669591E-1,-3.9906874E-1,6.618328E-4,4.3445656E-1,-9.887571E-1,-6.592609E-1,2.8124604E-1,-5.133312E-1,-4.0368E-2,3.792522E-1,5.1133776E-1,-9.089694E-3,-3.3482E-1,-7.734947E-1,-5.971762E-1,5.65314E-1,-5.8506715E-1,-1.6039544E-1,-1.2895335E-1,1.3796283E-1,1.4328262E-1,5.4416597E-1,4.8072782E-1,1.198382E0,2.7018756E-1,-2.2561897E-1,-5.785283E-1,1.1955499E-1,-1.6917144E-1,-8.7222916E-1,-2.5749648E-1,7.869903E-1,-7.3705274E-1,-3.384202E-1,1.2151873E0,-2.9845E-1,-1.0753803E-1,-1.2886335E0,1.3935814E0,9.4675675E-2,-4.7374818E-1,1.9954422E-1,1.3742095E0,3.9665404E-1,4.99491E-1,-7.451703E-1,-9.3647337E-1,3.818071E-1,-1.2919389E-2,-6.374128E-1],"categories":[],"categories_nodes":[],"categories_segments":[],"categories_sizes":[],"default_left":[1,1,1,1,1,1,1,0,1,1,1,1,1,1,1,1,0,1,1,1,1,1,1,1,1,1,0,1,1,0,0,0,0,0,0,0,0,0,0,0,0,0,0,0,0,0,0,0,0,0,0,0,0],"id":32,"left_children":[1,3,5,7,9,11,13,-1,15,17,19,21,23,25,27,29,-1,31,33,35,37,39,41,43,45,47,-1,49,51,-1,-1,-1,-1,-1,-1,-1,-1,-1,-1,-1,-1,-1,-1,-1,-1,-1,-1,-1,-1,-1,-1,-1,-1],"loss_changes":[1.332544E2,1.510434E1,1.14392136E2,1.4256744E0,3.6991066E1,1.0861762E2,2.2708359E1,0E0,9.773426E-1,1.750777E1,1.0190346E1,9.968071E1,2.6528503E1,1.1357651E1,6.068089E0,1.2263398E0,0E0,1.889154E0,9.780142E0,1.2391281E1,1.3654736E1,1.04553246E2,1.1369609E2,9.905752E0,4.8687706E1,1.2906326E1,0E0,6.261959E0,4.9404945E0,0E0,0E0,0E0,0E0,0E0,0E0,0E0,0E0,0E0,0E0,0E0,0E0,0E0,0E0,0E0,0E0,0E0,0E0,0E0,0E0,0E0,0E0,0E0,0E0],"parents":[2147483647,0,0,1,1,2,2,3,3,4,4,5,5,6,6,8,8,9,9,10,10,11,11,12,12,13,13,14,14,15,15,17,17,18,18,19,19,20,20,21,21,22,22,23,23,24,24,25,25,27,27,28,28],"right_children":[2,4,6,8,10,12,14,-1,16,18,20,22,24,26,28,30,-1,32,34,36,38,40,42,44,46,48,-1,50,52,-1,-1,-1,-1,-1,-1,-1,-1,-1,-1,-1,-1,-1,-1,-1,-1,-1,-1,-1,-1,-1,-1,-1,-1],"split_conditions":[-8.061739E-1,-1.5044245E0,2.3669004E0,-1.6789804E0,-1.0612406E0,1.8934784E0,1.6926515E0,-1.8181646E-1,-1.5964916E0,-1.5141771E0,1.6487664E0,1.0265486E0,4.3414313E-1,1.6482939E0,5.5651076E-4,-1.5400486E0,-1.4223318E-1,-1.3755242E0,-1.3711724E0,-9.5184606E-1,1.6925099E0,1.026511E0,1.0709374E0,-3.94251E-1,9.632879E-1,1.6482847E0,2.203631E-1,-1.1158838E0,9.628724E-1,-1.06382005E-1,2.198423E-2,-3.1107895E-2,-1.6038886E-1,-4.734944E-2,1.447148E-1,-1.355321E-1,-6.223001E-2,2.2345331E-1,-5.488013E-2,-1.9774506E-2,-2.3695888E-1,2.5625712E-1,1.7409327E-2,-8.711464E-2,3.669296E-2,2.5269493E-1,7.293827E-2,9.184833E-2,-1.3702478E-1,-1.7220232E-1,7.0208155E-2,-2.375667E-3,-1.1720991E-1],"split_indices":[3,0,2,0,0,3,0,0,0,3,0,0,7,0,3,3,0,0,0,3,0,0,0,0,7,0,0,7,7,0,0,0,0,0,0,0,0,0,0,0,0,0,0,0,0,0,0,0,0,0,0,0,0],"split_type":[0,0,0,0,0,0,0,0,0,0,0,0,0,0,0,0,0,0,0,0,0,0,0,0,0,0,0,0,0,0,0,0,0,0,0,0,0,0,0,0,0,0,0,0,0,0,0,0,0,0,0,0,0],"sum_hessian":[8.209415E3,5.541322E2,7.6552827E3,8.112479E1,4.730074E2,6.990491E3,6.6479126E2,4.876662E1,3.2358166E1,6.780963E1,4.0519775E2,6.307778E3,6.827137E2,5.664534E2,9.833785E1,9.449942E0,2.2908224E1,1.6300726E1,5.1508904E1,3.362047E2,6.899306E1,4.214509E3,2.0932688E3,2.8162076E2,4.010929E2,5.4391986E2,2.253358E1,4.2838013E1,5.549984E1,5.9730177E0,3.4769235E0,7.009081E0,9.291646E0,1.089768E1,4.0611225E1,2.0679062E2,1.294141E2,5.5810413E0,6.3412014E1,4.139165E3,7.534347E1,6.872043E1,2.0245485E3,2.2912704E1,2.5870807E2,5.9269566E1,3.4182333E2,5.363039E2,7.615934E0,3.0014136E0,3.98366E1,3.7276943E1,1.8222898E1],"tree_param":{"num_deleted":"0","num_feature":"9","num_nodes":"53","size_leaf_vector":"0"}},{"base_weights":[6.4832303E-3,-2.6747003E-1,9.998168E-2,-3.793597E-2,-6.235056E-1,1.4664108E0,-1.4618638E-2,-4.0385404E-1,1.2888373E0,-7.399971E-1,-2.5074458E-1,1.377396E0,2.8657913E0,-8.847889E-1,1.3592814E-1,-1.0044733E0,-2.7845702E-1,1.2644775E0,1.8147981E0,-6.3304085E-1,-1.0967791E0,1.8351642E0,-5.89523E-1,1.253947E0,1.5030502E0,1.2115169E0,3.0236235E0,-8.9612633E-1,8.386685E-1,1.67489E0,-3.7854817E-2,-2.1555431E-1,-9.250896E-1,-6.918183E-1,1.4167773E0,-1.3752629E0,-8.8809615E-1,-6.689675E-1,8.993675E-1,1.6818076E0,1.3835975E0,3.9028027E0,2.5129235E0,-1.1109412E0,-8.2969064E-1,1.6051056E0,4.1885424E0,-7.213006E-1,1.1376384E-1],"categories":[],"categories_nodes":[],"categories_segments":[],"categories_sizes":[],"default_left":[1,1,1,1,1,1,1,1,1,1,1,1,1,1,1,0,1,0,0,1,1,0,1,0,1,0,1,1,0,1,1,0,0,0,0,0,0,0,0,0,0,0,0,0,0,0,0,0,0],"id":33,"left_children":[1,3,5,7,9,11,13,15,17,19,21,23,25,27,29,-1,31,-1,-1,33,35,-1,37,-1,39,-1,41,43,-1,45,47,-1,-1,-1,-1,-1,-1,-1,-1,-1,-1,-1,-1,-1,-1,-1,-1,-1,-1],"loss_changes":[2.0790092E2,1.6875656E2,9.476126E2,6.106815E2,3.4965576E1,5.43808E1,7.3163684E2,7.397171E1,1.189209E0,2.2821533E1,1.3835379E2,4.974182E0,3.4070282E0,1.6846924E1,1.2734535E3,0E0,3.30309E1,0E0,0E0,5.8387604E1,6.959152E0,0E0,2.045797E1,0E0,2.2446594E0,0E0,9.9168396E-1,1.0764099E1,0E0,7.8023926E1,4.435045E2,0E0,0E0,0E0,0E0,0E0,0E0,0E0,0E0,0E0,0E0,0E0,0E0,0E0,0E0,0E0,0E0,0E0,0E0],"parents":[2147483647,0,0,1,1,2,2,3,3,4,4,5,5,6,6,7,7,8,8,9,9,10,10,11,11,12,12,13,13,14,14,16,16,19,19,20,20,22,22,24,24,26,26,27,27,29,29,30,30],"right_children":[2,4,6,8,10,12,14,16,18,20,22,24,26,28,30,-1,32,-1,-1,34,36,-1,38,-1,40,-1,42,44,-1,46,48,-1,-1,-1,-1,-1,-1,-1,-1,-1,-1,-1,-1,-1,-1,-1,-1,-1,-1],"split_conditions":[2.5451967E-1,2.5450158E-1,4.4127887E-1,1.6113444E-1,5.1451534E-1,1.1408927E0,4.4132337E-1,-1.657911E-1,1.0691504E0,4.8880136E-1,5.3893673E-1,-6.24601E-1,-1.8199128E-1,1.5407133E0,5.346872E-1,-1.8470642E-1,7.147144E-1,2.3251699E-1,3.3371207E-1,4.1803214E-1,4.8997375E-1,3.3745706E-1,1.5224729E0,2.305806E-1,-5.613364E-1,2.2277838E-1,-1.1446441E0,-1.977616E-1,1.542176E-1,1.1366441E0,5.3473556E-1,-3.9636955E-2,-1.7010903E-1,-1.2721421E-1,2.6052245E-1,-2.5288862E-1,-1.6330653E-1,-1.2301231E-1,1.6537915E-1,3.0925727E-1,2.5442123E-1,7.176624E-1,4.6208602E-1,-2.0428413E-1,-1.525667E-1,2.95153E-1,7.7020526E-1,-1.3263553E-1,2.0919332E-2],"split_indices":[4,4,4,4,5,8,4,4,8,5,5,8,5,5,4,0,8,0,0,5,5,0,5,0,8,0,7,5,0,8,4,0,0,0,0,0,0,0,0,0,0,0,0,0,0,0,0,0,0],"split_type":[0,0,0,0,0,0,0,0,0,0,0,0,0,0,0,0,0,0,0,0,0,0,0,0,0,0,0,0,0,0,0,0,0,0,0,0,0,0,0,0,0,0,0,0,0,0,0,0,0],"sum_hessian":[8.1145815E3,2.0642898E3,6.0502915E3,1.2557935E3,8.084962E2,4.6725174E2,5.58304E3,9.848671E2,2.709263E2,6.1524194E2,1.9325429E2,4.4117294E2,2.6078781E1,8.227299E2,4.76031E3,1.6889473E2,8.159724E2,2.621873E2,8.739021E0,4.754775E2,1.3976447E2,2.6384436E1,1.6686984E2,2.2807758E2,2.1309537E2,3.0270967E0,2.3051685E1,8.1783E2,4.8999043E0,4.8212646E2,4.2781836E3,7.448489E2,7.112358E1,4.6286752E2,1.2609979E1,5.7474953E1,8.2289505E1,1.589398E2,7.930039E0,8.011958E1,1.3297578E2,6.0295844E0,1.70221E1,1.8947014E2,6.2835986E2,4.7069745E2,1.1429019E1,7.760871E2,3.5020964E3],"tree_param":{"num_deleted":"0","num_feature":"9","num_nodes":"49","size_leaf_vector":"0"}},{"base_weights":[1.6886882E-3,-2.2544308E-2,1.0058982E0,-1.0015322E0,-4.1888463E-3,1.0583876E-1,-1.7845145E-1,-3.452997E-2,1.5811945E0,-8.06765E-1,5.5573322E-2,9.2223644E-2,-6.069381E-1,3.3082187E0,1.4898202E0,-9.238526E-1,-6.636639E-1,1.5229175E0,-2.310585E-1],"categories":[],"categories_nodes":[],"categories_segments":[],"categories_sizes":[],"default_left":[1,1,0,0,1,1,1,1,1,1,1,0,0,0,0,0,0,0,0],"id":34,"left_children":[1,3,-1,-1,5,7,9,11,13,15,17,-1,-1,-1,-1,-1,-1,-1,-1],"loss_changes":[1.9129686E2,1.379285E2,0E0,0E0,1.445033E2,9.567717E2,4.2893744E2,3.0619086E2,5.8409424E1,1.2651123E1,8.94597E2,0E0,0E0,0E0,0E0,0E0,0E0,0E0,0E0],"parents":[2147483647,0,0,1,1,4,4,5,5,6,6,7,7,8,8,9,9,10,10],"right_children":[2,4,-1,-1,6,8,10,12,14,16,18,-1,-1,-1,-1,-1,-1,-1,-1],"split_conditions":[1.0017421E0,-1.657911E-1,1.8496844E-1,-1.841656E-1,6.281048E-1,5.3473556E-1,6.281297E-1,5.346872E-1,-4.4204822E-1,-4.8455217E-1,9.082483E-1,1.6958438E-2,-1.1160611E-1,6.08328E-1,2.7395388E-1,-1.6988157E-1,-1.22037075E-1,2.8003994E-1,-4.2487923E-2],"split_indices":[4,4,0,0,4,4,4,4,0,8,4,0,0,0,0,0,0,0,0],"split_type":[0,0,0,0,0,0,0,0,0,0,0,0,0,0,0,0,0,0,0],"sum_hessian":[7.859044E3,7.6748174E3,1.8422664E2,1.4026427E2,7.5345527E3,4.6187285E3,2.9158247E3,4.2183604E3,4.003679E2,7.906438E2,2.125181E3,3.4542852E3,7.640753E2,1.8349375E1,3.8201852E2,4.3184506E2,3.5879877E2,3.4658862E2,1.7785922E3],"tree_param":{"num_deleted":"0","num_feature":"9","num_nodes":"19","size_leaf_vector":"0"}},{"base_weights":[4.2876448E-3,-9.766771E-2,1.3249944E-1,-4.149671E-1,-2.7986627E-2,-7.9602635E-1,1.5423137E-1,-4.7683293E-1,4.1464886E-1,-6.367822E-2,4.8954165E-1,-8.409674E-1,-3.790475E-1,3.3880755E-1,8.881778E-2,-5.6551576E-1,-1.4008075E-1,1.3601534E0,1.8507782E-1,-1.558649E-1,1.2840253E-1,3.7021223E-1,8.6175054E-1,-6.743638E-1,-9.3616265E-1,5.8270346E-2,-5.839593E-1,1.6390155E-1,1.0111045E0,-2.1767636E-1,1.937398E-1,-6.674676E-1,-2.366392E-1,-9.6747375E-1,-1.7279264E-2,1.6147003E0,7.9615873E-1,-6.7504716E-1,2.8478953E-1,-1.3844454E-1,-1.1395457E0,2.6179343E-1,-2.945573E-1,4.9232656E-1,9.845068E-4,2.4314097E-1,9.7928476E-1,-9.1469294E-1,2.811616E-1,-4.3629268E-1,4.8624858E-1,-7.3701376E-1,-2.8919247E-1,-6.8637013E-1,2.1281502E-1,1.0690243E0,6.276999E-1,-4.5218557E-1,-8.037816E-2,1.2946771E-1,4.0409887E-1],"categories":[],"categories_nodes":[],"categories_segments":[],"categories_sizes":[],"default_left":[1,1,1,1,1,1,1,1,1,1,1,1,1,1,1,1,1,1,1,1,1,1,1,1,0,1,1,1,1,1,1,0,0,0,0,0,0,0,0,0,0,0,0,0,0,0,0,0,0,0,0,0,0,0,0,0,0,0,0,0,0],"id":35,"left_children":[1,3,5,7,9,11,13,15,17,19,21,23,25,27,29,31,33,35,37,39,41,43,45,47,-1,49,51,53,55,57,59,-1,-1,-1,-1,-1,-1,-1,-1,-1,-1,-1,-1,-1,-1,-1,-1,-1,-1,-1,-1,-1,-1,-1,-1,-1,-1,-1,-1,-1,-1],"loss_changes":[9.993856E1,9.414836E1,6.845917E1,3.9552277E1,6.4551384E1,1.1356354E0,3.993364E1,2.1244568E1,1.1414477E1,5.789642E1,9.695255E0,4.6682358E-1,8.738276E-1,1.0163616E2,7.867529E1,1.8781479E1,1.5241295E1,1.992836E-1,4.0005007E0,3.769576E1,5.9910088E1,7.7765293E0,3.6868973E0,6.8600063E0,0E0,1.0374995E0,7.885575E-2,2.8768305E1,3.2937775E0,2.0057106E1,2.4583519E1,0E0,0E0,0E0,0E0,0E0,0E0,0E0,0E0,0E0,0E0,0E0,0E0,0E0,0E0,0E0,0E0,0E0,0E0,0E0,0E0,0E0,0E0,0E0,0E0,0E0,0E0,0E0,0E0,0E0,0E0],"parents":[2147483647,0,0,1,1,2,2,3,3,4,4,5,5,6,6,7,7,8,8,9,9,10,10,11,11,12,12,13,13,14,14,15,15,16,16,17,17,18,18,19,19,20,20,21,21,22,22,23,23,25,25,26,26,27,27,28,28,29,29,30,30],"right_children":[2,4,6,8,10,12,14,16,18,20,22,24,26,28,30,32,34,36,38,40,42,44,46,48,-1,50,52,54,56,58,60,-1,-1,-1,-1,-1,-1,-1,-1,-1,-1,-1,-1,-1,-1,-1,-1,-1,-1,-1,-1,-1,-1,-1,-1,-1,-1,-1,-1,-1,-1],"split_conditions":[-8.1860125E-1,-3.4945208E-1,-1.2816627E0,2.3669004E0,2.6217842E0,-1.3257861E0,1.0210831E-3,3.0796805E-1,6.256607E-1,1.0709665E0,1.6156237E0,-1.474555E0,-1.1410031E0,-8.838719E-2,1.0620132E-3,1.4265726E0,-1.6772761E0,3.5916123E-1,-1.284446E0,1.0709153E0,1.6926986E0,3.5891848E0,1.8635665E-1,-1.5584493E0,-1.7214519E-1,-1.4338119E0,-1.741941E-2,-1.0641675E0,1.6156237E0,4.936865E-1,1.341109E0,-1.22736506E-1,-4.3514125E-2,-1.7790279E-1,-3.1773774E-3,2.969173E-1,1.4640073E-1,-1.2413027E-1,5.2368194E-2,-2.5457716E-2,-2.0954405E-1,4.8139583E-2,-5.416433E-2,9.05309E-2,1.8103489E-4,4.4709697E-2,1.8007465E-1,-1.6819726E-1,5.1701076E-2,-8.0227174E-2,8.941326E-2,-1.3552493E-1,-5.3177822E-2,-1.2621237E-1,3.9133243E-2,1.965763E-1,1.1542387E-1,-8.314962E-2,-1.4780245E-2,2.380702E-2,7.4307255E-2],"split_indices":[6,3,0,2,3,0,3,8,0,0,1,3,3,3,3,0,0,0,3,0,0,3,0,3,0,3,3,3,1,0,3,0,0,0,0,0,0,0,0,0,0,0,0,0,0,0,0,0,0,0,0,0,0,0,0,0,0,0,0,0,0],"split_type":[0,0,0,0,0,0,0,0,0,0,0,0,0,0,0,0,0,0,0,0,0,0,0,0,0,0,0,0,0,0,0,0,0,0,0,0,0,0,0,0,0,0,0,0,0,0,0,0,0,0,0,0,0,0,0,0,0,0,0,0,0],"sum_hessian":[7.64332E3,4.2577505E3,3.3855693E3,7.6577344E2,3.491977E3,7.661147E1,3.3089578E3,7.130271E2,5.2746372E1,3.2675085E3,2.244684E2,6.8239914E1,8.371557E0,8.6474493E2,2.444213E3,5.6385736E2,1.4916975E2,9.342767E0,4.3403606E1,2.2079973E3,1.0595111E3,1.7148521E2,5.298319E1,2.775289E1,4.0487022E1,2.8993866E0,5.472171E0,6.8720435E2,1.7754056E2,6.23065E2,1.8211478E3,4.2963947E2,1.3421785E2,1.8389494E1,1.3078026E2,5.153758E0,4.189008E0,3.909532E0,3.9494076E1,2.1706965E3,3.730089E1,8.05772E2,2.537392E2,1.2861507E2,4.2870144E1,8.949357E0,4.403383E1,2.2209578E1,5.5433125E0,1.3360486E0,1.5633382E0,2.614363E0,2.8578079E0,3.6673306E1,6.5053107E2,1.5268639E2,2.4854166E1,2.2923376E2,3.9383124E2,1.3961809E3,4.2496692E2],"tree_param":{"num_deleted":"0","num_feature":"9","num_nodes":"61","size_leaf_vector":"0"}},{"base_weights":[5.107838E-3,-2.3684147E-1,6.7927726E-2,-3.627851E-2,-5.1551086E-1,1.6449499E0,-3.2526597E-2,-3.526638E-1,1.2124518E0,-5.3824896E-1,5.1005536E-1,3.4597712E0,1.5223523E0,-8.247142E-1,7.3171444E-2,-9.990874E-1,-2.4176651E-1,-6.585768E-1,-3.062667E-1,1.2399739E0,2.0912513E-1,3.7655447E0,1.5862085E0,1.7368939E0,1.3830258E0,-1.0277398E0,-5.658395E-1,1.6057407E0,-3.2339014E-2,-1.7987695E-1,-7.78589E-1,-5.805578E-1,-1.0062609E0,-7.213958E-2,-6.067485E-1,-2.8623223E-1,9.3161577E-1,2.3653204E0,1.6043218E0,1.5770886E0,1.2996596E0,-9.6701133E-1,-1.5332457E0,-4.3468094E-1,-7.720054E-1,3.1561096E0,1.5031493E0,-4.908185E-1,4.2456206E-2],"categories":[],"categories_nodes":[],"categories_segments":[],"categories_sizes":[],"default_left":[1,1,1,1,1,1,1,1,0,1,1,1,1,1,1,0,1,1,1,0,1,0,0,1,1,1,1,1,1,0,0,0,0,0,0,0,0,0,0,0,0,0,0,0,0,0,0,0,0],"id":36,"left_children":[1,3,5,7,9,11,13,15,-1,17,19,21,23,25,27,-1,29,31,33,-1,35,-1,-1,37,39,41,43,45,47,-1,-1,-1,-1,-1,-1,-1,-1,-1,-1,-1,-1,-1,-1,-1,-1,-1,-1,-1,-1],"loss_changes":[1.1501708E2,8.7159584E1,9.517447E2,3.5919342E2,1.5495407E1,7.4779175E1,4.730388E2,5.1752136E1,0E0,1.7636505E1,2.9632473E0,6.61911E0,7.7247925E0,3.4371582E1,8.0607794E2,0E0,2.0472057E1,1.0806366E1,1.5442408E1,0E0,4.414994E0,0E0,0E0,6.9926147E0,1.3527222E0,9.9218445E0,7.628853E0,4.632599E1,1.5997795E2,0E0,0E0,0E0,0E0,0E0,0E0,0E0,0E0,0E0,0E0,0E0,0E0,0E0,0E0,0E0,0E0,0E0,0E0,0E0,0E0],"parents":[2147483647,0,0,1,1,2,2,3,3,4,4,5,5,6,6,7,7,9,9,10,10,11,11,12,12,13,13,14,14,16,16,17,17,18,18,20,20,23,23,24,24,25,25,26,26,27,27,28,28],"right_children":[2,4,6,8,10,12,14,16,-1,18,20,22,24,26,28,-1,30,32,34,-1,36,-1,-1,38,40,42,44,46,48,-1,-1,-1,-1,-1,-1,-1,-1,-1,-1,-1,-1,-1,-1,-1,-1,-1,-1,-1,-1],"split_conditions":[-1.9794184E-1,-1.9795491E-1,4.7700636E-2,-2.962035E-1,3.4268122E0,-5.7292473E-1,4.7704846E-2,-6.155572E-1,2.2295031E-1,1.0265486E0,3.5778036E0,6.4371026E-1,3.2346837E-2,1.7309347E-1,1.7052718E-1,-1.8371603E-1,1.6037788E0,7.598107E-1,1.5146749E0,2.2801118E-1,1.6156237E0,6.924228E-1,2.916781E-1,3.6719924E-1,2.2718045E-1,1.6156237E0,1.20373294E-1,-6.0636747E-1,1.7054394E-1,-3.3076465E-2,-1.4316994E-1,-1.06755204E-1,-1.8503512E-1,-1.3265304E-2,-1.1157125E-1,-5.2633483E-2,1.7130908E-1,4.349442E-1,2.9500887E-1,2.9000112E-1,2.389864E-1,-1.7781776E-1,-2.8193912E-1,-7.9930805E-2,-1.4195932E-1,5.8035755E-1,2.7640486E-1,-9.025359E-2,7.8070103E-3],"split_indices":[5,5,5,5,3,0,5,5,0,0,3,3,3,6,5,0,0,0,0,0,1,0,0,0,0,1,3,0,5,0,0,0,0,0,0,0,0,0,0,0,0,0,0,0,0,0,0,0,0],"split_type":[0,0,0,0,0,0,0,0,0,0,0,0,0,0,0,0,0,0,0,0,0,0,0,0,0,0,0,0,0,0,0,0,0,0,0,0,0,0,0,0,0,0,0,0,0,0,0,0,0],"sum_hessian":[7.5652397E3,1.5587976E3,6.0064424E3,9.070843E2,6.517133E2,3.5877017E2,5.647672E3,7.242914E2,1.8279291E2,6.380423E2,1.3671024E1,2.0980083E1,3.377901E2,6.6403656E2,4.9836357E3,1.0488783E2,6.194035E2,4.1891473E2,2.1912755E2,3.0799673E0,1.0591058E1,1.716831E1,3.8117743E0,1.2848163E2,2.0930847E2,3.704985E2,2.9353802E2,3.2008542E2,4.6635503E3,5.5657214E2,6.2831383E1,3.4432037E2,7.459438E1,1.23859634E2,9.526791E1,6.6413856E0,3.9496715E0,1.9448557E1,1.0903307E2,5.7512047E1,1.5179643E2,3.333632E2,3.713531E1,1.8130428E2,1.1223376E2,1.801889E1,3.0206653E2,6.5331287E2,4.010237E3],"tree_param":{"num_deleted":"0","num_feature":"9","num_nodes":"49","size_leaf_vector":"0"}},{"base_weights":[4.36228E-3,-1.0001102E-2,9.978699E-1,-9.957999E-1,2.071075E-3,1.19353786E-1,-1.1614897E-1,-2.9319206E-3,1.4106778E0,-5.016467E-1,6.383322E-2,9.51433E-2,-4.095104E-1,1.7385402E0,1.2915593E0,-3.481687E-2,-1.4245349E0,1.7427076E0,-2.2827873E-2],"categories":[],"categories_nodes":[],"categories_segments":[],"categories_sizes":[],"default_left":[1,1,0,0,1,1,1,1,1,1,1,0,0,0,0,0,0,0,0],"id":37,"left_children":[1,3,-1,-1,5,7,9,11,13,15,17,-1,-1,-1,-1,-1,-1,-1,-1],"loss_changes":[1.0568507E2,8.688685E1,0E0,0E0,1.0002974E2,5.718896E2,2.4931604E2,1.319978E2,9.989929E0,4.9267697E2,3.5652985E2,0E0,0E0,0E0,0E0,0E0,0E0,0E0,0E0],"parents":[2147483647,0,0,1,1,4,4,5,5,6,6,7,7,8,8,9,9,10,10],"right_children":[2,4,-1,-1,6,8,10,12,14,16,18,-1,-1,-1,-1,-1,-1,-1,-1],"split_conditions":[1.5218253E0,-6.155572E-1,1.8349215E-1,-1.8311152E-1,4.1612837E-1,1.7055055E-1,4.8988527E-1,1.7052718E-1,9.400323E-2,4.89878E-1,5.14416E-1,1.7495317E-2,-7.530235E-2,3.1968945E-1,2.374969E-1,-6.4022597E-3,-2.6194897E-1,3.204558E-1,-4.197677E-3],"split_indices":[5,5,0,0,5,5,5,5,0,5,5,0,0,0,0,0,0,0,0],"split_type":[0,0,0,0,0,0,0,0,0,0,0,0,0,0,0,0,0,0,0],"sum_hessian":[7.4043345E3,7.2997896E3,1.0454491E2,8.732655E1,7.212463E3,3.62058E3,3.591883E3,3.3082896E3,3.1229044E2,1.1426637E3,2.4492195E3,2.6659683E3,6.423213E2,7.960106E1,2.3268938E2,7.5951276E2,3.8315094E2,1.1928165E2,2.3299377E3],"tree_param":{"num_deleted":"0","num_feature":"9","num_nodes":"19","size_leaf_vector":"0"}},{"base_weights":[2.3137E-3,-1.7467221E-2,1.0023279E0,-2.3665018E-1,5.8366705E-2,-2.9140247E-2,-5.382089E-1,1.3434441E0,-4.3055005E-2,-3.3569998E-1,1.2198946E0,-7.042186E-1,-3.109711E-1,1.8125541E0,1.2758083E0,-7.5483435E-1,8.956719E-2,-9.975541E-1,-2.4313255E-1,-3.5522404E-1,-7.76434E-1,-4.9093333E-1,-9.057005E-2,1.4378456E0,1.2180848E0,-7.8958666E-1,-5.795709E-1,1.4945306E0,-6.473405E-2],"categories":[],"categories_nodes":[],"categories_segments":[],"categories_sizes":[],"default_left":[1,1,0,1,1,1,1,1,1,1,0,1,1,0,1,1,1,0,0,0,0,0,0,0,0,0,0,0,0],"id":38,"left_children":[1,3,-1,5,7,9,11,13,15,17,-1,19,21,-1,23,25,27,-1,-1,-1,-1,-1,-1,-1,-1,-1,-1,-1,-1],"loss_changes":[1.432662E2,1.1806262E2,0E0,1.1423689E2,6.878821E2,4.1494775E2,2.7854614E1,9.937012E0,4.618896E2,5.3062126E1,0E0,1.0542191E1,1.2487389E1,0E0,1.4361572E0,4.223114E0,8.943034E2,0E0,0E0,0E0,0E0,0E0,0E0,0E0,0E0,0E0,0E0,0E0,0E0],"parents":[2147483647,0,0,1,1,3,3,4,4,5,5,6,6,7,7,8,8,9,9,11,11,12,12,14,14,15,15,16,16],"right_children":[2,4,-1,6,8,10,12,14,16,18,-1,20,22,-1,24,26,28,-1,-1,-1,-1,-1,-1,-1,-1,-1,-1,-1,-1],"split_conditions":[1.0017421E0,2.5451967E-1,1.8431191E-1,2.5450158E-1,4.4127887E-1,1.6113444E-1,8.266807E-1,-2.2309178E-1,4.4132337E-1,-1.657911E-1,2.2431892E-1,-5.0566214E-1,1.7309347E-1,3.3329943E-1,3.6835435E-1,1.3824217E0,5.346872E-1,-1.8343408E-1,-4.4708148E-2,-6.531996E-2,-1.4277367E-1,-9.027471E-2,-1.6654368E-2,2.6439658E-1,2.2398612E-1,-1.4519224E-1,-1.0657372E-1,2.7482003E-1,-1.1903546E-2],"split_indices":[4,4,0,4,4,4,0,0,4,4,0,0,6,0,0,0,4,0,0,0,0,0,0,0,0,0,0,0,0],"split_type":[0,0,0,0,0,0,0,0,0,0,0,0,0,0,0,0,0,0,0,0,0,0,0,0,0,0,0,0,0],"sum_hessian":[7.2406577E3,7.1011743E3,1.3948323E2,1.8248079E3,5.2763667E3,1.0816172E3,7.4319055E2,3.8506775E2,4.891299E3,8.6905096E2,2.1256625E2,4.2823923E2,3.1495135E2,4.5271843E1,3.397959E2,7.6749335E2,4.1238057E3,1.05432846E2,7.636181E2,7.443531E1,3.5380392E2,1.7270584E2,1.4224551E2,8.297236E1,2.5682355E2,6.3756744E2,1.299259E2,4.0722278E2,3.7165828E3],"tree_param":{"num_deleted":"0","num_feature":"9","num_nodes":"29","size_leaf_vector":"0"}},{"base_weights":[6.6421796E-3,-1.0093176E-2,9.993133E-1,-9.945957E-1,2.7641475E-3,3.9356228E-2,-3.1941918E-1,-2.0564543E-2,1.3788687E0,-5.2768484E-2,-4.1837364E-1,5.7242095E-2,-5.808326E-1,1.3361083E0,2.081475E0,-3.727163E-1,1.8873843E0,-1.0017138E0,-3.1949118E-1],"categories":[],"categories_nodes":[],"categories_segments":[],"categories_sizes":[],"default_left":[1,1,0,0,1,1,1,1,1,1,1,0,0,0,0,0,0,0,0],"id":39,"left_children":[1,3,-1,-1,5,7,9,11,13,15,17,-1,-1,-1,-1,-1,-1,-1,-1],"loss_changes":[1.17081E2,8.773866E1,0E0,0E0,8.0685616E1,4.9332224E2,1.839621E1,2.565179E2,5.1254272E0,1.1868983E2,2.9037483E1,0E0,0E0,0E0,0E0,0E0,0E0,0E0,0E0],"parents":[2147483647,0,0,1,1,4,4,5,5,6,6,7,7,8,8,9,9,10,10],"right_children":[2,4,-1,-1,6,8,10,12,14,16,18,-1,-1,-1,-1,-1,-1,-1,-1],"split_conditions":[1.0017421E0,-1.657911E-1,1.8375757E-1,-1.8289009E-1,1.0016975E0,9.083147E-1,4.677086E-2,9.082483E-1,6.48441E-1,-1.9565366E-1,4.8454035E-2,1.0525896E-2,-1.06805734E-1,2.4568874E-1,3.8274962E-1,-6.8536505E-2,3.470595E-1,-1.8419898E-1,-5.8749266E-2],"split_indices":[4,4,0,0,4,4,5,4,8,5,5,0,0,0,0,0,0,0,0],"split_type":[0,0,0,0,0,0,0,0,0,0,0,0,0,0,0,0,0,0,0],"sum_hessian":[7.046072E3,6.9302256E3,1.1584623E2,8.835568E1,6.8418696E3,6.1448447E3,6.97025E2,5.882678E3,2.6216678E2,1.890714E2,5.079536E2,5.1661343E3,7.1654364E2,2.4986192E2,1.2304852E1,1.6299931E2,2.607209E1,7.2300285E1,4.3565335E2],"tree_param":{"num_deleted":"0","num_feature":"9","num_nodes":"19","size_leaf_vector":"0"}},{"base_weights":[4.0071076E-3,-1.0276774E-2,9.963901E-1,-1.3684365E-1,7.866385E-2,4.5216493E-2,-6.399494E-1,1.4069618E0,-5.1391147E-2,-1.882776E-1,1.2768482E0,-5.347596E-1,-7.9946923E-1,1.3686541E0,2.1660516E0,-4.94834E-1,5.4405954E-2,-1.1940874E-2,-4.362159E-1,1.2376537E0,1.6946977E0,-5.842951E-1,1.434444E0,-1.3968054E0,-6.4591074E-1,1.2510978E0,1.4786227E0,-2.672699E-1,-7.382139E-1,1.450938E0,-1.2352019E-1],"categories":[],"categories_nodes":[],"categories_segments":[],"categories_sizes":[],"default_left":[1,1,0,1,1,1,1,1,1,1,1,1,1,1,0,1,1,0,0,0,0,0,0,0,0,0,0,0,0,0,0],"id":40,"left_children":[1,3,-1,5,7,9,11,13,15,17,19,21,23,25,-1,27,29,-1,-1,-1,-1,-1,-1,-1,-1,-1,-1,-1,-1,-1,-1],"loss_changes":[9.818445E1,7.687929E1,0E0,2.5819342E2,6.929831E2,5.9568115E2,1.2140533E1,7.4379883E0,1.7146753E2,7.613106E1,3.3087769E0,4.516107E1,2.6213318E1,2.5875854E0,0E0,3.879361E1,7.335119E2,0E0,0E0,0E0,0E0,0E0,0E0,0E0,0E0,0E0,0E0,0E0,0E0,0E0,0E0],"parents":[2147483647,0,0,1,1,3,3,4,4,5,5,6,6,7,7,8,8,9,9,10,10,11,11,12,12,13,13,15,15,16,16],"right_children":[2,4,-1,6,8,10,12,14,16,18,20,22,24,26,-1,28,30,-1,-1,-1,-1,-1,-1,-1,-1,-1,-1,-1,-1,-1,-1],"split_conditions":[1.0017421E0,4.4132337E-1,1.8322004E-1,4.4127887E-1,5.346872E-1,2.5451967E-1,4.8934558E-1,1.1366441E0,5.3473556E-1,2.5448593E-1,1.1408927E0,4.1649553E-1,4.9002922E-1,-1.3988802E0,3.983019E-1,4.1204602E-1,6.281048E-1,-2.1957338E-3,-8.0213055E-2,2.2758453E-1,3.1162754E-1,-1.0744243E-1,2.6377106E-1,-2.5684994E-1,-1.1877255E-1,2.3005667E-1,2.718948E-1,-4.914662E-2,-1.3574561E-1,2.6680407E-1,-2.2713367E-2],"split_indices":[4,4,0,4,4,4,5,8,4,4,8,5,5,8,0,5,4,0,0,0,0,0,0,0,0,0,0,0,0,0,0],"split_type":[0,0,0,0,0,0,0,0,0,0,0,0,0,0,0,0,0,0,0,0,0,0,0,0,0,0,0,0,0,0,0],"sum_hessian":[6.9248296E3,6.827547E3,9.728277E1,2.8175278E3,4.0100193E3,2.0695312E3,7.479965E2,3.5673538E2,3.6532837E3,1.7404265E3,3.2910486E2,4.5338196E2,2.9461453E2,3.4226587E2,1.44695215E1,7.0300385E2,2.95028E3,1.0176849E3,7.2274164E2,3.0450424E2,2.4600626E1,4.4294296E2,1.0438995E1,5.85932E1,2.3602135E2,1.7140773E2,1.7085814E2,3.6439078E2,3.3861304E2,3.3259628E2,2.6176836E3],"tree_param":{"num_deleted":"0","num_feature":"9","num_nodes":"31","size_leaf_vector":"0"}},{"base_weights":[8.417232E-3,-3.778905E-3,9.932816E-1,-9.913739E-1,7.4477037E-3,-5.3016655E-2,1.8972929E-1,5.9256043E-2,-5.242533E-1,1.65596E0,-1.1478567E-1,-1.1662807E-2,1.4237598E0,-1.3103603E0,-1.4991581E-1,3.7082946E0,1.5738503E0,-1.75969E-1,9.9385345E-1],"categories":[],"categories_nodes":[],"categories_segments":[],"categories_sizes":[],"default_left":[1,1,0,0,1,1,1,1,1,1,1,0,0,0,0,0,0,0,0],"id":41,"left_children":[1,3,-1,-1,5,7,9,11,13,15,17,-1,-1,-1,-1,-1,-1,-1,-1],"loss_changes":[8.061125E1,7.351366E1,0E0,0E0,7.2269714E1,2.605424E2,7.2942944E2,3.8490887E2,2.7862823E2,4.150659E1,9.197197E1,0E0,0E0,0E0,0E0,0E0,0E0,0E0,0E0],"parents":[2147483647,0,0,1,1,4,4,5,5,6,6,7,7,8,8,9,9,10,10],"right_children":[2,4,-1,-1,6,8,10,12,14,16,18,-1,-1,-1,-1,-1,-1,-1,-1],"split_conditions":[1.0017421E0,-1.657911E-1,1.8264844E-1,-1.8229765E-1,5.1444614E-1,4.8983946E-1,5.389999E-1,4.1619998E-1,4.8997152E-1,-4.2500046E-1,1.5220548E0,-2.144602E-3,2.6180643E-1,-2.409541E-1,-2.7567096E-2,6.818955E-1,2.8940564E-1,-3.2357857E-2,1.827536E-1],"split_indices":[4,4,0,0,5,5,5,5,5,0,5,0,0,0,0,0,0,0,0],"split_type":[0,0,0,0,0,0,0,0,0,0,0,0,0,0,0,0,0,0,0],"sum_hessian":[6.709838E3,6.628746E3,8.109138E1,7.352483E1,6.5552217E3,4.922947E3,1.6322744E3,3.9764316E3,9.4651544E2,2.7993887E2,1.3523356E3,3.7809136E3,1.9551811E2,3.045214E2,6.41994E2,9.070048E0,2.7086884E2,1.2824038E3,6.9931755E1],"tree_param":{"num_deleted":"0","num_feature":"9","num_nodes":"19","size_leaf_vector":"0"}},{"base_weights":[7.6016183E-3,-2.7802158E-3,9.899242E-1,-9.8790133E-1,6.7359935E-3,2.9464658E-2,-3.6480594E-1,-7.939322E-3,1.5879713E0,-5.6024927E-1,-2.3620377E-1,-7.827177E-2,1.1465386E-1,2.3098288E0,1.5162443E0,-4.5602036E-1,-7.698553E-1,1.105597E0,-3.1112316E-1],"categories":[],"categories_nodes":[],"categories_segments":[],"categories_sizes":[],"default_left":[1,1,0,0,1,1,1,1,1,1,1,0,0,0,0,0,0,0,0],"id":42,"left_children":[1,3,-1,-1,5,7,9,11,13,15,17,-1,-1,-1,-1,-1,-1,-1,-1],"loss_changes":[6.697859E1,6.093851E1,0E0,0E0,5.4381386E1,3.5375635E2,9.19846E0,5.1113262E1,3.861847E0,2.8517303E0,2.3026295E1,0E0,0E0,0E0,0E0,0E0,0E0,0E0,0E0],"parents":[2147483647,0,0,1,1,4,4,5,5,6,6,7,7,8,8,9,9,10,10],"right_children":[2,4,-1,-1,6,8,10,12,14,16,18,-1,-1,-1,-1,-1,-1,-1,-1],"split_conditions":[1.0017421E0,-1.657911E-1,1.8203107E-1,-1.816591E-1,1.4925046E0,9.637745E-1,4.4138676E-1,9.821583E-1,-6.643704E-1,4.4091153E-1,5.342377E-1,-1.4392914E-2,2.1082994E-2,4.247402E-1,2.7881283E-1,-8.385478E-2,-1.4156395E-1,2.0330143E-1,-5.7210524E-2],"split_indices":[4,4,0,0,7,7,4,0,0,4,4,0,0,0,0,0,0,0,0],"split_type":[0,0,0,0,0,0,0,0,0,0,0,0,0,0,0,0,0,0,0],"sum_hessian":[6.5663467E3,6.4986616E3,6.768498E1,6.1192394E1,6.437469E3,6.067234E3,3.7023557E2,5.9260054E3,1.4122855E2,1.4560132E2,2.2463426E2,3.7658667E3,2.1601387E3,9.944497E0,1.3128404E2,9.9366066E1,4.623526E1,1.1151662E1,2.1348259E2],"tree_param":{"num_deleted":"0","num_feature":"9","num_nodes":"19","size_leaf_vector":"0"}},{"base_weights":[6.805051E-3,-1.8761319E-1,5.7859477E-2,-1.640155E-2,-4.0824357E-1,1.4909579E0,-2.5742518E-2,-2.684151E-1,1.1868831E0,-8.9307463E-1,-3.7407544E-1,2.4561362E0,1.4226757E0,-6.7895377E-1,6.760333E-2,-9.8984545E-1,-1.8741083E-1,-3.9918575E-1,2.9012161E-1,1.5774046E0,1.3007598E0,-8.642079E-1,-4.495775E-1,1.4945414E0,-2.0818213E-2,-2.3399356E-1,3.6319906E-1,-5.1460254E-1,-2.5136048E-1,5.494969E-1,-6.068762E-2,1.7543297E0,1.3741964E0,-9.498453E-1,-6.000139E-1,-3.3591843E-1,-6.2110585E-1,2.5248E0,1.4161451E0,-1.397909E-1,1.5636186E-1],"categories":[],"categories_nodes":[],"categories_segments":[],"categories_sizes":[],"default_left":[1,1,1,1,1,1,1,1,0,0,1,0,1,1,1,0,1,1,1,1,0,1,1,1,1,0,0,0,0,0,0,0,0,0,0,0,0,0,0,0,0],"id":43,"left_children":[1,3,5,7,9,11,13,15,-1,-1,17,-1,19,21,23,-1,25,27,29,31,-1,33,35,37,39,-1,-1,-1,-1,-1,-1,-1,-1,-1,-1,-1,-1,-1,-1,-1,-1],"loss_changes":[6.455235E1,5.1087692E1,6.1714417E2,2.3158623E2,9.455818E0,1.52178955E1,2.9685657E2,3.671248E1,0E0,0E0,9.351944E0,0E0,2.9951782E0,2.5478333E1,5.3752985E2,0E0,1.467638E1,8.982063E0,1.9216499E0,1.6592102E0,0E0,7.024597E0,5.1344185E0,1.6502563E1,8.4602806E1,0E0,0E0,0E0,0E0,0E0,0E0,0E0,0E0,0E0,0E0,0E0,0E0,0E0,0E0,0E0,0E0],"parents":[2147483647,0,0,1,1,2,2,3,3,4,4,5,5,6,6,7,7,10,10,12,12,13,13,14,14,16,16,17,17,18,18,19,19,21,21,22,22,23,23,24,24],"right_children":[2,4,6,8,10,12,14,16,-1,-1,18,-1,20,22,24,-1,26,28,30,32,-1,34,36,38,40,-1,-1,-1,-1,-1,-1,-1,-1,-1,-1,-1,-1,-1,-1,-1,-1],"split_conditions":[-1.9794184E-1,-1.9795491E-1,4.7700636E-2,-2.962035E-1,-7.3308825E-1,-6.189031E-1,4.7704846E-2,-6.155572E-1,2.1824862E-1,-1.64222E-1,2.759111E0,4.5164376E-1,5.4053716E-2,1.7309347E-1,1.7052718E-1,-1.820166E-1,2.3669004E0,1.7309347E-1,4.488628E-1,9.046571E-1,2.3918872E-1,7.810459E-1,1.20373294E-1,-6.1831045E-1,5.1444614E-1,-4.3027636E-2,6.678644E-2,-9.46271E-2,-4.622113E-2,1.01043604E-1,-1.1159473E-2,3.2259288E-1,2.5269252E-1,-1.746612E-1,-1.1033287E-1,-6.1769973E-2,-1.14211336E-1,4.6426994E-1,2.604062E-1,-2.5705287E-2,2.875242E-2],"split_indices":[5,5,5,5,0,0,5,5,0,0,3,0,3,6,5,0,2,6,0,0,0,3,3,0,5,0,0,0,0,0,0,0,0,0,0,0,0,0,0,0,0],"split_type":[0,0,0,0,0,0,0,0,0,0,0,0,0,0,0,0,0,0,0,0,0,0,0,0,0,0,0,0,0,0,0,0,0,0,0,0,0,0,0,0,0],"sum_hessian":[6.5013247E3,1.3516162E3,5.1497085E3,7.616453E2,5.899709E2,2.8292902E2,4.8667793E3,6.303938E2,1.3125151E2,3.7185604E1,5.527853E2,1.6382963E1,2.6654605E2,6.077339E2,4.2590454E3,6.2504475E1,5.6788934E2,5.330327E2,1.9752571E1,1.1220427E2,1.5434177E2,3.346712E2,2.7306265E2,2.4758824E2,4.0114573E3,5.241225E2,4.376682E1,2.979346E2,2.3509813E2,1.1030592E1,8.721978E0,5.590066E1,5.6303608E1,2.5078506E2,8.388615E1,1.6601512E2,1.0704752E2,1.530107E1,2.3228717E2,2.400071E3,1.6113861E3],"tree_param":{"num_deleted":"0","num_feature":"9","num_nodes":"41","size_leaf_vector":"0"}},{"base_weights":[7.144827E-3,-2.487913E-3,9.8974985E-1,4.4047832E-2,-1.8156148E-1,-3.3398416E-2,1.4998852E0,-1.0382525E-2,-3.3187497E-1,5.730858E-2,-4.192255E-1,1.4512101E0,2.4810362E0,3.012942E-1,-1.707347E-1,-3.9973694E-1,1.4560011E-1,-4.850377E-3,1.3738211E0,-1.2457951E0,-8.884373E-2,1.3656809E0,1.563779E0,1.0833826E0,2.7516615E0,1.543236E-1,1.1183047E0,-4.001771E-1,1.0206012E-1,-4.4471404E-1,1.6276415E-1,-4.6410754E-1,2.9973307E-1],"categories":[],"categories_nodes":[],"categories_segments":[],"categories_sizes":[],"default_left":[1,1,0,1,1,1,1,1,1,1,1,1,1,1,1,1,1,0,0,0,0,0,0,0,0,0,0,0,0,0,0,0,0],"id":44,"left_children":[1,3,-1,5,7,9,11,13,15,17,19,21,23,25,27,29,31,-1,-1,-1,-1,-1,-1,-1,-1,-1,-1,-1,-1,-1,-1,-1,-1],"loss_changes":[6.0320827E1,5.2606186E1,0E0,5.650002E2,3.350048E1,1.6656075E2,8.487488E0,3.0529661E1,2.2522041E1,3.153642E2,2.4727614E2,2.0928955E-1,1.0109177E0,2.4746527E1,2.5284012E1,1.54361725E1,8.315466E0,0E0,0E0,0E0,0E0,0E0,0E0,0E0,0E0,0E0,0E0,0E0,0E0,0E0,0E0,0E0,0E0],"parents":[2147483647,0,0,1,1,3,3,4,4,5,5,6,6,7,7,8,8,9,9,10,10,11,11,12,12,13,13,14,14,15,15,16,16],"right_children":[2,4,-1,6,8,10,12,14,16,18,20,22,24,26,28,30,32,-1,-1,-1,-1,-1,-1,-1,-1,-1,-1,-1,-1,-1,-1,-1,-1],"split_conditions":[1.5218253E0,5.389999E-1,1.8199901E-1,5.1444614E-1,-5.8210737E-1,4.89878E-1,1.0273111E0,4.411435E-1,1.6156237E0,4.1618627E-1,4.8988527E-1,-5.8578384E-1,4.166143E-1,2.5473478E-1,6.281304E-1,9.6577275E-1,2.5728035E-1,-8.91906E-4,2.5262353E-1,-2.290816E-1,-1.6336927E-2,2.5112668E-1,2.875537E-1,1.9921656E-1,5.059861E-1,2.8377615E-2,2.0563817E-1,-7.35861E-2,1.8767206E-2,-8.1775725E-2,2.9929698E-2,-8.534188E-2,5.511607E-2],"split_indices":[5,5,0,5,8,5,8,4,1,5,5,8,4,4,4,7,4,0,0,0,0,0,0,0,0,0,0,0,0,0,0,0,0],"split_type":[0,0,0,0,0,0,0,0,0,0,0,0,0,0,0,0,0,0,0,0,0,0,0,0,0,0,0,0,0,0,0,0,0],"sum_hessian":[6.37166E3,6.310791E3,6.0868908E1,5.009682E3,1.3011093E3,4.7575703E3,2.5211165E2,6.088322E2,6.92277E2,3.852669E3,9.049015E2,2.4255743E2,9.554206E0,2.0652682E2,4.0230542E2,6.062723E2,8.600469E1,3.6799185E3,1.7275052E2,2.5761456E2,6.472869E2,1.45295E2,9.726244E1,2.361487E0,7.1927195E0,1.7604692E2,3.0479893E1,2.182623E2,1.8404312E2,5.6157837E2,4.4693913E1,1.6948801E1,6.905589E1],"tree_param":{"num_deleted":"0","num_feature":"9","num_nodes":"33","size_leaf_vector":"0"}},{"base_weights":[6.496406E-3,-1.12289175E-1,8.754015E-2,3.6906797E-2,-5.162984E-1,1.3155502E0,-1.3677448E-2,-1.5078934E-1,1.2209108E0,-7.9930127E-1,-4.3405104E-1,1.1920525E0,1.4127917E0,-3.8485807E-1,7.357364E-2,8.229958E-3,-3.727677E-1,1.1127038E0,1.298513E0,-8.5217834E-1,-4.4838527E-1,1.484347E0,-4.937306E-1,1.4494911E0,1.1219263E0,-1.8986401E-1,-6.076546E-1,1.3530669E0,-6.335251E-2,-2.41343E-1,1.1778493E0,-1.8207005E-1,-5.2839035E-1,-1.0167338E0,-7.83897E-1,-7.403363E-2,-7.963806E-1,-2.720956E-1,-6.157559E-1,-2.5809157E-1,1.5236434E0,-6.3062006E-1,8.178016E-1,1.2982562E0,2.0235093E0,-5.926272E-1,1.3873702E-1],"categories":[],"categories_nodes":[],"categories_segments":[],"categories_sizes":[],"default_left":[1,1,1,1,1,1,1,1,1,1,1,0,1,1,1,1,1,0,0,1,1,0,1,0,0,1,1,1,1,0,0,0,0,0,0,0,0,0,0,0,0,0,0,0,0,0,0],"id":45,"left_children":[1,3,5,7,9,11,13,15,17,19,21,-1,23,25,27,29,31,-1,-1,33,35,-1,37,-1,-1,39,41,43,45,-1,-1,-1,-1,-1,-1,-1,-1,-1,-1,-1,-1,-1,-1,-1,-1,-1,-1],"loss_changes":[6.0144085E1,1.527484E2,4.6161917E2,4.116242E2,1.5560501E1,1.7120667E0,1.1117408E2,5.644403E1,6.833191E-1,2.4513931E0,6.160845E1,0E0,5.0964355E-3,2.8268349E1,4.870566E2,2.7250436E2,1.9709648E1,0E0,0E0,6.8162537E-1,2.8210087E0,0E0,1.3799156E1,0E0,0E0,4.1295208E1,1.0483208E1,7.248749E0,2.687496E2,0E0,0E0,0E0,0E0,0E0,0E0,0E0,0E0,0E0,0E0,0E0,0E0,0E0,0E0,0E0,0E0,0E0,0E0],"parents":[2147483647,0,0,1,1,2,2,3,3,4,4,5,5,6,6,7,7,8,8,9,9,10,10,12,12,13,13,14,14,15,15,16,16,19,19,20,20,22,22,25,25,26,26,27,27,28,28],"right_children":[2,4,6,8,10,12,14,16,18,20,22,-1,24,26,28,30,32,-1,-1,34,36,-1,38,-1,-1,40,42,44,46,-1,-1,-1,-1,-1,-1,-1,-1,-1,-1,-1,-1,-1,-1,-1,-1,-1,-1],"split_conditions":[4.4132337E-1,4.4127887E-1,5.346872E-1,2.5451967E-1,-1.977616E-1,-6.2610734E-1,5.3473556E-1,2.5450158E-1,-6.24601E-1,1.6156237E0,4.6486888E-2,2.191992E-1,1.6156237E0,4.1204602E-1,6.281048E-1,1.6113444E-1,-6.808598E-1,2.0460825E-1,2.3877558E-1,-1.0804596E0,-2.0330197E-1,2.7294743E-1,4.1364628E-1,2.66538E-1,2.0630412E-1,1.721285E-1,1.5547986E0,9.6246487E-1,6.281297E-1,-4.437908E-2,2.1658745E-1,-3.347974E-2,-9.716245E-2,-1.8696092E-1,-1.44146E-1,-1.3613589E-2,-1.4644152E-1,-5.0033983E-2,-1.1322757E-1,-4.745887E-2,2.801734E-1,-1.15960844E-1,1.503805E-1,2.3872833E-1,3.7209067E-1,-1.08974576E-1,2.5511498E-2],"split_indices":[4,4,4,4,5,8,4,4,8,1,5,0,1,5,4,4,8,0,0,7,5,0,5,0,0,5,5,8,4,0,0,0,0,0,0,0,0,0,0,0,0,0,0,0,0,0,0],"split_type":[0,0,0,0,0,0,0,0,0,0,0,0,0,0,0,0,0,0,0,0,0,0,0,0,0,0,0,0,0,0,0,0,0,0,0,0,0,0,0,0,0,0,0,0,0,0,0],"sum_hessian":[6.2455283E3,2.5328103E3,3.7127183E3,1.8503907E3,6.8241943E2,2.818013E2,3.430917E3,1.5979464E3,2.5244438E2,1.5170459E2,5.3071484E2,1.2998167E2,1.5181963E2,6.5234064E2,2.7785762E3,9.3156287E2,6.6638354E2,1.1183816E2,1.4060623E2,1.3059735E2,2.1107235E1,1.5291698E1,5.1542316E2,1.3127307E2,2.0546545E1,3.4886343E2,3.0347717E2,2.677481E2,2.5108281E3,7.6839636E2,1.6316649E2,3.0042148E2,3.6596207E2,3.42253E1,9.6372055E1,1.0752794E1,1.0354441E1,1.841609E2,3.3126227E2,3.3632135E2,1.2542089E1,2.9921414E2,4.2630386E0,2.5022766E2,1.752045E1,6.9325446E2,1.8175737E3],"tree_param":{"num_deleted":"0","num_feature":"9","num_nodes":"47","size_leaf_vector":"0"}},{"base_weights":[8.617557E-3,-9.8452586E-1,1.698537E-2,8.517734E-3,9.8443717E-1,4.0078606E-2,-2.5247827E-1,-1.0661985E-2,1.2915661E0,-7.990233E-3,-3.3969724E-1,5.5842068E-2,-4.652067E-1,1.372737E0,1.169465E0,-2.4218737E-1,1.5045259E0,-7.9546934E-1,-2.643361E-1],"categories":[],"categories_nodes":[],"categories_segments":[],"categories_sizes":[],"default_left":[1,0,1,1,0,1,1,1,1,1,1,0,0,0,0,0,0,0,0],"id":46,"left_children":[1,-1,3,5,-1,7,9,11,13,15,17,-1,-1,-1,-1,-1,-1,-1,-1],"loss_changes":[5.0057106E1,0E0,4.891493E1,4.878504E1,0E0,3.3551193E2,1.3621582E1,1.5354323E2,4.3502808E-1,6.0236237E1,1.5963879E1,0E0,0E0,0E0,0E0,0E0,0E0,0E0,0E0],"parents":[2147483647,0,0,2,2,3,3,5,5,6,6,7,7,8,8,9,9,10,10],"right_children":[2,-1,4,6,-1,8,10,12,14,16,18,-1,-1,-1,-1,-1,-1,-1,-1],"split_conditions":[-6.155572E-1,-1.810384E-1,1.0017421E0,1.0016975E0,1.810221E-1,9.083147E-1,4.677086E-2,9.0822506E-1,2.093019E-1,-1.9565366E-1,4.8454035E-2,1.0268454E-2,-8.5544E-2,2.5242418E-1,2.150457E-1,-4.4534344E-2,2.76658E-1,-1.4627396E-1,-4.860714E-2],"split_indices":[5,0,4,4,0,4,5,4,3,5,5,0,0,0,0,0,0,0,0],"split_type":[0,0,0,0,0,0,0,0,0,0,0,0,0,0,0,0,0,0,0],"sum_hessian":[6.0203887E3,4.932679E1,5.971062E3,5.9202534E3,5.0808308E1,5.282335E3,6.379185E2,5.077465E3,2.0487039E2,1.6802121E2,4.6989734E2,4.430168E3,6.4729694E2,1.16908714E2,8.7961685E1,1.462204E2,2.1800806E1,6.5316734E1,4.045806E2],"tree_param":{"num_deleted":"0","num_feature":"9","num_nodes":"19","size_leaf_vector":"0"}},{"base_weights":[5.482085E-3,-2.596284E-3,9.847688E-1,7.9779424E-2,-9.001405E-2,-2.4485374E-2,1.3805734E0,-5.4935086E-1,1.4610137E-3,4.1879553E-2,-2.8817058E-1,2.1596901E0,1.3404993E0,-5.9707516E-1,1.410799E-1,1.3394146E0,-7.95643E-2,-9.693773E-2,1.4289007E0,-4.3661192E-1,-9.26755E-2,1.4670216E0,1.2355351E0,-6.451163E-1,-2.2923839E-1,-2.9739395E-1,7.171082E-1,2.115601E0,1.2105334E0,-1.1880025E0,3.5433274E-2],"categories":[],"categories_nodes":[],"categories_segments":[],"categories_sizes":[],"default_left":[1,1,0,1,1,1,1,1,1,1,1,0,1,1,1,1,1,0,0,0,0,0,0,0,0,0,0,0,0,0,0],"id":47,"left_children":[1,3,-1,5,7,9,11,13,15,17,19,-1,21,23,25,27,29,-1,-1,-1,-1,-1,-1,-1,-1,-1,-1,-1,-1,-1,-1],"loss_changes":[4.7168995E1,4.259679E1,0E0,4.1308643E2,1.2058437E2,4.9369083E1,4.161621E0,1.5788437E1,2.5965887E2,4.3417398E2,1.6421104E1,0E0,1.077179E0,7.733124E0,8.20035E0,1.1120743E1,2.8792102E2,0E0,0E0,0E0,0E0,0E0,0E0,0E0,0E0,0E0,0E0,0E0,0E0,0E0,0E0],"parents":[2147483647,0,0,1,1,3,3,4,4,5,5,6,6,7,7,8,8,9,9,10,10,12,12,13,13,14,14,15,15,16,16],"right_children":[2,4,-1,6,8,10,12,14,16,18,20,-1,22,24,26,28,30,-1,-1,-1,-1,-1,-1,-1,-1,-1,-1,-1,-1,-1,-1],"split_conditions":[1.5218253E0,4.161591E-1,1.8108307E-1,1.7054394E-1,4.1618627E-1,1.7052718E-1,-1.0115359E0,2.1839771E0,4.89878E-1,4.7704846E-2,1.7309347E-1,3.9713213E-1,1.9746883E-2,1.6062796E0,1.7309347E-1,-2.1294196E-1,4.8988527E-1,-1.7825283E-2,2.6275176E-1,-8.028588E-2,-1.7041527E-2,2.6976156E-1,2.2719495E-1,-1.1862647E-1,-4.2153236E-2,-5.4685943E-2,1.318646E-1,3.8902485E-1,2.2259754E-1,-2.1845447E-1,6.515607E-3],"split_indices":[5,5,0,5,5,5,0,3,5,5,6,0,3,0,6,0,5,0,0,0,0,0,0,0,0,0,0,0,0,0,0],"split_type":[0,0,0,0,0,0,0,0,0,0,0,0,0,0,0,0,0,0,0,0,0,0,0,0,0,0,0,0,0,0,0],"sum_hessian":[5.9611035E3,5.9133203E3,4.778304E1,3.0445042E3,2.8688164E3,2.8194897E3,2.2501428E2,4.756021E2,2.3932144E3,2.253232E3,5.662577E2,8.420043E0,2.1659424E2,4.4497925E2,3.062284E1,1.3576845E2,2.257446E3,2.0490837E3,2.0414839E2,3.2116248E2,2.4509523E2,9.232754E1,1.242667E2,3.9290964E2,5.2069633E1,1.7662119E1,1.2960722E1,1.7138258E1,1.1863019E2,2.1131294E2,2.046133E3],"tree_param":{"num_deleted":"0","num_feature":"9","num_nodes":"31","size_leaf_vector":"0"}},{"base_weights":[6.71013E-3,-9.984128E-2,8.033875E-2,3.1710096E-2,-4.4834962E-1,1.2606572E0,-6.255419E-3,-1.2781419E-1,1.1885428E0,-5.2143157E-1,-2.7473822E-2,1.4333298E0,1.1707191E0,-3.2054138E-1,6.955421E-2,1.2528252E-2,-3.1945354E-1,1.3097368E0,1.1107413E0,-7.518652E-1,-4.5420423E-1,-4.7150657E-1,2.8830984E-1,-2.2256798E-1,-7.0075154E-1,1.2834234E0,-4.308092E-2,-1.9647215E-1,1.1498799E0,-3.8177034E-1,3.910436E-1,-3.799221E-1,-9.2168653E-1,1.4124639E0,-5.0373673E-1,-2.3707594E-1,-1.2529726E0,6.074331E-1,-2.988595E-1,-2.7680072E-1,1.79342E0,-7.426088E-1,7.573817E-1,1.7076728E0,1.2284179E0,-5.01636E-1,1.3477674E-1],"categories":[],"categories_nodes":[],"categories_segments":[],"categories_sizes":[],"default_left":[1,1,1,1,1,1,1,1,1,1,1,0,0,1,1,1,1,0,0,1,1,1,1,1,1,1,1,0,0,0,0,0,0,0,0,0,0,0,0,0,0,0,0,0,0,0,0],"id":48,"left_children":[1,3,5,7,9,11,13,15,17,19,21,-1,-1,23,25,27,29,-1,-1,31,33,35,37,39,41,43,45,-1,-1,-1,-1,-1,-1,-1,-1,-1,-1,-1,-1,-1,-1,-1,-1,-1,-1,-1,-1],"loss_changes":[4.5521324E1,1.0872253E2,3.507137E2,3.1798932E2,1.9973358E1,1.9642639E0,7.621129E1,4.0736137E1,5.1416016E-1,8.235001E0,1.3764993E1,0E0,0E0,2.2999454E1,3.524108E2,2.0826915E2,2.8497879E1,0E0,0E0,7.4513474E0,4.0572906E1,7.1730566E0,1.0941433E1,5.469465E1,8.3072815E0,3.009613E0,1.9248344E2,0E0,0E0,0E0,0E0,0E0,0E0,0E0,0E0,0E0,0E0,0E0,0E0,0E0,0E0,0E0,0E0,0E0,0E0,0E0,0E0],"parents":[2147483647,0,0,1,1,2,2,3,3,4,4,5,5,6,6,7,7,8,8,9,9,10,10,13,13,14,14,15,15,16,16,19,19,20,20,21,21,22,22,23,23,24,24,25,25,26,26],"right_children":[2,4,6,8,10,12,14,16,18,20,22,-1,-1,24,26,28,30,-1,-1,32,34,36,38,40,42,44,46,-1,-1,-1,-1,-1,-1,-1,-1,-1,-1,-1,-1,-1,-1,-1,-1,-1,-1,-1,-1],"split_conditions":[4.4132337E-1,4.4125658E-1,5.346872E-1,2.5451967E-1,1.360732E0,3.9223415E-1,5.3473556E-1,2.5450158E-1,3.5879558E-1,-1.977616E-1,3.6104298E-1,2.635662E-1,2.1527635E-1,5.385457E-1,6.281048E-1,1.6113444E-1,2.0307095E0,2.4083945E-1,2.0424737E-1,4.484606E-1,4.5777727E-2,5.3732586E-1,9.3498445E-1,5.146597E-1,1.5547986E0,-2.2498807E-1,6.281297E-1,-3.6128055E-2,2.1144435E-1,-7.02014E-2,7.1906604E-2,-6.986154E-2,-1.6948326E-1,2.597293E-1,-9.2629045E-2,-4.3594435E-2,-2.3040143E-1,1.1169713E-1,-5.4955434E-2,-5.089918E-2,3.2978097E-1,-1.3655376E-1,1.3927026E-1,3.1401345E-1,2.258862E-1,-9.224276E-2,2.4783265E-2],"split_indices":[4,4,4,4,3,0,4,4,0,5,0,0,0,5,4,4,3,0,0,0,5,5,0,5,5,0,4,0,0,0,0,0,0,0,0,0,0,0,0,0,0,0,0,0,0,0,0],"split_type":[0,0,0,0,0,0,0,0,0,0,0,0,0,0,0,0,0,0,0,0,0,0,0,0,0,0,0,0,0,0,0,0,0,0,0,0,0,0,0,0,0,0,0,0,0,0,0],"sum_hessian":[5.8003955E3,2.3701233E3,3.4302722E3,1.7212953E3,6.4882806E2,2.3353427E2,3.196738E3,1.5134799E3,2.0781549E2,5.526292E2,9.619883E1,7.4864525E1,1.5866974E2,6.20614E2,2.576124E3,8.7420886E2,6.39271E2,7.505922E1,1.3275627E2,1.2251229E2,4.301169E2,3.9775787E1,5.6423042E1,4.9471906E2,1.2589495E2,2.1785927E2,2.358265E3,7.3920026E2,1.3500862E2,5.8814795E2,5.1123035E1,3.94174E1,8.3094894E1,1.0406965E1,4.1970993E2,3.159964E1,8.176147E0,3.653303E1,1.989001E1,4.8259918E2,1.2119858E1,1.22858864E2,3.0360804E0,2.1555956E1,1.9630331E2,6.585532E2,1.6997115E3],"tree_param":{"num_deleted":"0","num_feature":"9","num_nodes":"47","size_leaf_vector":"0"}},{"base_weights":[6.419002E-3,-6.412523E-2,9.515702E-2,-9.143158E-2,3.1838113E-1,-6.61356E-1,1.08644344E-1,-1.1634531E-1,2.95428E-1,1.9093919E-1,7.37481E-1,-7.75546E-1,-4.3634954E-1,2.4860738E-1,5.915455E-2,-3.073565E-1,-7.364112E-2,5.8836603E-1,2.043485E-1,9.44583E-1,1.6256388E-1,9.272103E-3,8.831573E-1,-5.6859136E-1,-8.9037114E-1,-4.4209708E-2,-6.7299426E-1,1.2247444E-1,7.596117E-1,-3.998583E-2,1.743827E-1,2.7205247E-1,-3.7594777E-1,1.6564497E-1,-1.1543118E-1,1.0075108E0,3.5244685E-1,-5.147437E-1,2.5338298E-1,1.2065032E0,8.856093E-2,-1.0215772E0,1.9017193E-1,8.062852E-1,-6.1314005E-1,6.675715E-1,9.736266E-1,-9.0836924E-1,7.996415E-1,-6.686443E-1,2.915711E-1,-2.6042122E-1,-7.3801965E-1,6.3230866E-1,5.705861E-2,8.2703155E-1,3.2816133E-1,-1.3207825E-1,1.0746577E-1,-9.2445236E-1,1.8485829E-1],"categories":[],"categories_nodes":[],"categories_segments":[],"categories_sizes":[],"default_left":[1,1,1,1,1,1,1,1,1,1,1,1,1,1,1,1,1,1,1,1,1,1,1,1,0,1,1,1,1,1,1,0,0,0,0,0,0,0,0,0,0,0,0,0,0,0,0,0,0,0,0,0,0,0,0,0,0,0,0,0,0],"id":49,"left_children":[1,3,5,7,9,11,13,15,17,19,21,23,25,27,29,31,33,35,37,39,41,43,45,47,-1,49,51,53,55,57,59,-1,-1,-1,-1,-1,-1,-1,-1,-1,-1,-1,-1,-1,-1,-1,-1,-1,-1,-1,-1,-1,-1,-1,-1,-1,-1,-1,-1,-1,-1],"loss_changes":[3.515775E1,3.2710617E1,2.545124E1,2.8189707E1,1.1006554E1,7.84647E-1,1.691877E1,2.2370068E1,4.6029987E0,3.297801E0,5.117445E0,1.5219498E-1,1.5479257E0,4.104772E1,2.0653828E1,2.0024673E1,2.2467949E1,3.7441158E0,4.9460597E0,1.1595287E0,5.318529E0,4.9912877E0,1.3511086E-1,6.609441E0,0E0,1.7609587E0,9.036636E-2,1.7077183E1,3.3986511E0,1.3217391E1,9.794596E0,0E0,0E0,0E0,0E0,0E0,0E0,0E0,0E0,0E0,0E0,0E0,0E0,0E0,0E0,0E0,